tree
version=v4
num_class=1
num_tree_per_iteration=1
label_index=0
max_feature_idx=3
objective=lambdarank
feature_names=Column_0 Column_1 Column_2 Column_3
monotone_constraints=0 0 0 1
feature_infos=[-5.041180810667374e-16:0.93316701828005599] [-0.10671804845333099:-0.026481024920940399] [-0.12279404699802399:0.027620386332273483] [-0.058184381574392319:-0.0039974893443286419]
tree_sizes=3445 3419 3415 3437 3433 3439 3455 3463 3470 3415 3436 3492 3443 3443 3494 3486 3456 3490 3460 3498 3483 3498 3494 3501 3493 3504 3512 3482 3497 3490 3481 3479 3451 3478 3477 3478 3491 3470 3482 3490 3467 3480 3482 3481 3492 3483 3485 3505 3475 3492 3474 3497 3483 3490 3484 3456 3465 3467 3488 3514 3495 3507 3510 3495 3498 3520 3489 3545 3498 3513 3494 3553 3555 3571 3504 3497 3532 3499 3544 3511 3528 3518 3544 3500 3498 3491 3492 3519 3512 3505 3543 3552 3563 3552 3564 3569 3576 3579 3563 3551

Tree=0
num_leaves=31
num_cat=0
split_feature=0 0 0 0 0 1 0 0 0 2 0 0 0 1 0 0 0 0 0 2 0 2 2 2 0 1 1 0 0 0
split_gain=0.931065 3.03139 2.41361 1.7481 1.85647 1.80699 1.9015 1.79018 1.88713 2.16709 2.15846 1.64468 3.54386 2.54485 3.84714 3.15576 1.48155 1.45572 1.3421 1.29714 0.824338 0.606724 0.533568 0.611625 0.518469 0.706121 1.19193 0.559123 0.515923 0.513872
threshold=0.043519125574006098 0.04970701433142969 0.051063922813859276 0.025480797934013134 0.024578576857842049 -0.10035529732704161 -1.8797507670710602e-16 0.029385043019508193 0.043078915344232437 -0.048515290021896355 0.037286137488053053 0.019867792807101586 4.690523882975175e-17 -0.060236785560846322 -2.828359071806608e-16 -2.5828370329778677e-16 0.053542930208135116 0.037286137488053053 0.031726240991096999 -0.024483307264745232 0.0072390107133810866 -0.022031949833035466 1.0000000180025095e-35 -0.048515290021896355 0.074674910102134728 -0.060236785560846322 -0.10035529732704161 0.083303354279023814 0.0081917031312101121 -3.6550488251401193e-16
decision_type=2 2 2 2 2 2 2 2 2 2 2 2 2 2 2 2 2 2 2 2 2 2 2 2 2 2 2 2 2 2
left_child=3 -2 -3 4 5 6 -1 22 9 17 18 12 13 14 29 -15 -4 -9 -11 -13 -14 -21 23 -5 25 26 -18 -26 -22 -7
right_child=1 2 16 7 -6 11 -8 8 -10 10 -12 19 20 15 -16 -17 24 -19 -20 21 28 -23 -24 -25 27 -27 -28 -29 -30 -31
leaf_value=-0.028515576345991729 -0.081033725449717556 0.086894744620741149 -0.083719266349900651 -0.025068211441884015 -0.083437306418998131 0.081628983504738795 0.059798134911008695 -0.022053728272352038 0.091037396686391991 -0.099764878240696922 -0.07295812897947769 -0.080211266449494945 -0.089905492208668225 -0.051097102270069084 -0.089725125039506387 0.0866295599598461 0.09999999999999945 0.092822441556229346 0.069759067434689237 0.099999999999999853 0.062315341317795959 0.021748923085572958 0.0130546712507882 0.087067918353046156 -0.082037476378642893 0.086362916985704474 -0.058369802211073324 -0.0046098988223096235 -0.045451591922269219 0.0083512680282592493
leaf_weight=0.86139343865215812 1.4008963704109181 0.71262262016534794 0.61917429044842709 0.13196279294788849 0.70362107641995031 0.48315290734171867 2.0843828320503262 0.45021258480846948 0.5854254588484763 0.14757026918232474 1.3909223657101391 0.18062380701303471 1.3828785233199599 0.57421728596091304 1.1737228259444235 1.5087156724184749 0.18065688945353031 0.71176755428314209 0.55904186703264713 0.55918848514556874 0.11956769786775101 0.4447198137640952 0.38572147674858559 1.5485138073563567 0.24762413278222073 0.36417719908058632 0.34702899493277073 3.9920395668596029 1.5606638379395006 0.47393450140953097
leaf_count=22 18 6 8 5 9 9 79 14 2 5 19 7 56 16 31 22 8 5 13 1 3 10 7 11 10 5 11 128 45 9
internal_value=1.92121e-09 -0.0143549 9.74833e-05 0.00626403 -0.00461531 0.000246621 0.0339738 0.0285537 0.00838285 -0.00646233 -0.0368066 -0.0114953 -0.0203891 0.00936064 -0.0290571 0.0486614 -0.0106584 0.0483133 0.0343554 0.0431419 -0.0613142 0.0653357 0.0660891 0.0782622 -0.00184278 0.0328089 -0.00415081 -0.00913218 -0.0377827 0.045343
internal_weight=25.8861 7.86422 6.46332 18.0219 12.1108 11.4072 2.94578 5.91114 3.84494 3.25951 2.09753 8.46139 7.27685 4.21374 2.13081 2.08293 5.7507 1.16198 0.706612 1.18453 3.06311 1.00391 2.0662 1.68048 5.13153 0.891863 0.527686 4.23966 1.68023 0.957087
internal_count=594 194 176 400 319 310 101 81 58 56 37 209 191 87 49 38 170 19 18 18 104 11 23 16 162 24 19 138 48 18
is_linear=0
shrinkage=0.05


Tree=1
num_leaves=31
num_cat=0
split_feature=0 0 0 3 0 0 1 0 0 0 2 1 1 0 0 0 2 1 0 1 0 1 0 0 1 2 0 0 1 0
split_gain=4.51595 3.13994 3.29155 2.49596 2.78561 2.46482 8.02284 3.82899 3.63594 3.71635 3.59902 2.77595 2.22701 1.48753 4.7396 2.48223 2.27636 1.36963 1.30732 1.99206 1.539 1.31808 3.15123 1.72008 1.40739 1.27146 1.15797 1.63432 1.32968 2.02377
threshold=0.074674910102134728 0.050174866404142121 0.043519125574006098 -0.017962302779778835 0.051063922813859276 -1.9831561430880973e-16 -0.10035529732704161 0.017858346347475271 4.690523882975175e-17 -2.6485610033105027e-17 1.0000000180025095e-35 -0.10035529732704161 -0.060236785560846322 1.3347525760198156e-16 0.0038752526897688788 0.005476949228401075 -0.043581053614616387 -0.10035529732704161 0.76729667763785836 -0.10035529732704161 0.12346530548158834 -0.060236785560846322 0.15630814918734467 0.36286313835729073 -0.10035529732704161 -0.070362573489546762 -1.0330250957640842e-16 -9.0640360843898204e-17 -0.10035529732704161 -8.9362656629537426e-17
decision_type=2 2 2 2 2 2 2 2 2 2 2 2 2 2 2 2 2 2 2 2 2 2 2 2 2 2 2 2 2 2
left_child=1 2 5 4 -3 6 -1 8 9 10 26 13 -12 -10 -15 -16 25 -4 20 -20 -2 22 24 -23 -22 -17 -7 -28 29 -29
right_child=18 3 17 -5 -6 7 -8 -9 11 -11 12 -13 -14 14 15 16 -18 -19 19 -21 21 23 -24 -25 -26 -27 27 28 -30 -31
leaf_value=-0.081289078122035438 -0.046924562143414665 0.051587654200669575 0.026556802333270142 0.089303507015912165 -0.027923487693499106 -0.044878221460999894 0.051256669229859865 0.017787815970085791 -0.053633191484353186 0.080198129863841838 -0.082352324499716412 -0.061903005710765652 0.09555240974404039 0.098479682790949138 -0.099640065507927186 0.097967564657478606 0.098221685562039418 -0.084834968747972542 0.10004130865360109 -0.091397027559257715 -0.094173450963320679 -0.036949141619679868 -0.05498311063652335 0.05324500644796331 0.099746802956240013 -0.063613433485165835 0.097668704627237035 -0.098100887059569819 -0.051167058216394862 0.043989268517526936
leaf_weight=1.3649841537699101 3.751808309927581 0.87225267291069064 0.34019760414957989 1.9259579805657256 1.6746045202016828 3.0526865720748897 6.9779616594314557 15.380008308216928 1.2963350564241327 1.4519628342241064 0.20855361968278874 5.2215803582221332 1.1237961351871488 1.0268232487142088 0.83321759104728732 0.14547808468341827 0.47530342265963521 1.4613216742873181 0.15083363279700268 1.3714813403785218 0.11212629824876785 0.79854213818907904 2.3133085621520877 1.5637613125145433 0.5651678591966619 0.74636613950133335 0.36467361450195301 0.31124705076217662 1.3454851508140573 1.2859772406518457
leaf_count=21 50 2 5 11 21 18 45 123 9 9 4 100 3 13 3 5 15 17 7 17 1 9 35 16 3 5 1 1 15 10
internal_value=-6.49427e-11 0.00642164 0.00240035 0.0463521 0.0138718 0.00519908 0.0295709 -0.000734276 -0.0158151 0.00683046 -0.00701786 -0.0370648 0.0677049 -0.00839365 0.0097787 -0.0316145 0.00984409 -0.0637998 -0.029541 -0.072429 -0.0223701 -0.00516009 -0.0272114 0.0227562 0.0676432 -0.0372563 -0.0226713 -0.00217445 -0.0145475 0.0163005
internal_weight=59.5138 48.8868 44.414 4.47282 2.54686 42.6124 8.34295 34.2695 18.8895 9.14438 7.69242 9.7451 1.33235 4.52352 3.22719 2.20037 1.36715 1.80152 10.627 1.52231 9.10471 5.35291 2.9906 2.3623 0.677294 0.891844 6.36007 3.30738 2.94271 1.59722
internal_count=594 456 422 34 23 400 66 334 211 61 52 150 7 50 41 28 25 22 138 24 114 64 39 25 4 10 45 27 26 11
is_linear=0
shrinkage=0.05


Tree=2
num_leaves=31
num_cat=0
split_feature=0 1 0 1 0 1 0 0 0 2 0 1 0 1 0 0 0 2 0 0 0 0 0 0 0 0 2 2 0 2
split_gain=3.75029 5.65767 5.36879 4.20756 1.04767 2.05592 1.48115 4.86735 2.39612 1.94633 1.7857 6.73845 5.06594 3.84797 3.20534 2.51455 1.67134 1.60727 1.48557 1.43906 1.3771 1.37315 2.35625 1.2708 1.22166 1.14863 1.1302 1.06374 1.05571 1.1565
threshold=-3.6550488251401193e-16 -0.10035529732704161 -4.6828732359424568e-16 -0.060236785560846322 0.76729667763785836 -0.10035529732704161 0.050174866404142121 0.074674910102134728 0.12346530548158834 0.021465975325554613 4.690523882975175e-17 -0.060236785560846322 -2.5828370329778677e-16 -0.10035529732704161 0.026333378820065433 0.02190082554421361 0.043519125574006098 -0.024483307264745232 -2.9062441792118015e-16 1.3347525760198156e-16 0.067079953910791565 0.0038752526897688788 0.005476949228401075 0.69065079173932009 0.0072390107133810866 0.026859158136267648 -0.043581053614616387 -0.019234104081988331 0.01292402740826179 -0.070362573489546762
decision_type=2 2 2 2 2 2 2 2 2 2 2 2 2 2 2 2 2 2 2 2 2 2 2 2 2 2 2 2 2 2
left_child=1 -1 -3 -4 6 -6 10 17 -9 23 11 18 -13 15 24 19 25 -8 -2 -12 -19 -21 -23 -10 -15 -16 28 -22 29 -24
right_child=4 2 3 -5 5 -7 7 8 9 -11 13 12 -14 14 16 -17 -18 20 -20 21 27 22 26 -25 -26 -27 -28 -29 -30 -31
leaf_value=-0.081898911251361506 0.0027622687704535768 -0.1023809552172887 0.091969558678761221 -0.054633846922339552 0.093911827968781045 -0.086061154021982805 0.069092446929994958 -0.045081824797911944 -0.014656599521886483 0.096529912221758718 -0.033061915330949265 -0.075390223518802743 0.065902643386088158 -0.082836106596715406 0.063182734491124534 -0.021514774429251121 -0.074460645538281481 -0.048956225046415142 -0.056922122401339516 0.091275242878836593 -0.091495533820877786 -0.094057187884902971 0.090666705265726094 0.044726359310746186 -0.040418088903077971 -0.0063423482730903848 0.091607929611414798 0.075746657917289212 0.095707982853473414 -0.06812112465122333
leaf_weight=0.84917324408888806 1.5941843139007685 0.47533157467842091 4.0274856984615326 0.55712222307920356 0.19362190738320351 0.87939961627125629 3.4217425175011158 3.3539589019492251 4.0571043603122234 0.56116439402103413 0.5837369635701174 0.73635777086019505 4.5814879834651965 2.5269899368286151 0.66416846215724934 2.973115423694253 0.83074598759412754 0.63469006121158489 3.0131668951362371 1.3380344994366171 0.11159449443221092 0.34006650745868716 0.15512769669294357 1.158112972974777 5.170560035854578 5.628828801214695 0.8329742942005387 0.64241916313767433 0.25019295141100883 0.43969248980283804
leaf_count=11 15 1 8 7 7 17 21 50 46 2 9 9 22 56 3 45 17 7 54 13 2 3 3 16 74 45 20 4 4 3
internal_value=6.97841e-10 0.037528 0.0575705 0.0741543 -0.00475127 -0.0535858 -0.00360214 0.00997767 -0.0114671 0.00805071 -0.00958182 0.00799034 0.0463379 -0.0176064 -0.0319745 0.0131989 -0.00780403 0.0506804 -0.0362708 0.039395 0.00531336 0.0519977 0.0259554 -0.00146977 -0.0543433 0.00099539 0.0502775 0.0509947 0.00953599 -0.0267096
internal_weight=52.5824 5.90911 5.05994 4.58461 46.6732 1.07302 45.6002 13.9408 9.13034 5.77638 31.6594 9.9252 5.31785 21.7342 14.8213 6.91294 7.12374 4.81045 4.60735 3.93983 1.3887 3.35609 2.01805 5.21522 7.69755 6.293 1.67799 0.754014 0.845013 0.59482
internal_count=594 27 16 15 567 24 543 148 114 64 395 100 31 295 195 100 65 34 69 55 13 46 33 62 130 48 30 6 10 6
is_linear=0
shrinkage=0.05


Tree=3
num_leaves=31
num_cat=0
split_feature=0 1 1 0 0 1 0 0 1 0 2 0 0 0 0 0 2 0 1 0 0 0 1 0 1 0 0 0 0 2
split_gain=5.12282 5.35857 2.08986 1.05385 0.71718 5.86456 3.30906 2.42557 2.20585 1.6696 1.40455 2.13521 1.36672 1.20833 1.39378 1.00198 0.815805 1.08065 0.876614 0.78889 2.59204 1.52276 1.35692 1.52502 1.49362 1.93228 1.3365 1.15372 1.13507 1.32254
threshold=-3.6550488251401193e-16 -0.10035529732704161 -0.060236785560846322 -4.6828732359424568e-16 4.690523882975175e-17 -0.060236785560846322 -2.5828370329778677e-16 0.005476949228401075 -0.10035529732704161 -2.9062441792118015e-16 -0.022031949833035466 -3.3298299990939462e-17 0.0081917031312101121 0.0038752526897688788 1.3347525760198156e-16 0.0091535397086173562 -0.024483307264745232 -2.9984377205159807e-16 -0.10035529732704161 0.074674910102134728 0.050174866404142121 0.12346530548158834 -0.10035529732704161 0.051063922813859276 -0.060236785560846322 0.053542930208135116 0.051724186724080613 0.043519125574006098 0.040305371807181571 -0.10817961022257803
decision_type=2 2 2 2 2 2 2 2 2 2 2 2 2 2 2 2 2 2 2 2 2 2 2 2 2 2 2 2 2 2
left_child=1 -1 3 -3 5 9 -7 8 13 16 11 -8 -9 14 -6 -14 -2 -18 -19 20 27 -21 26 -24 -25 -26 -22 28 29 -17
right_child=4 2 -4 -5 7 6 10 12 -10 -11 -12 -13 15 -15 -16 19 17 18 -20 21 22 -23 23 24 25 -27 -28 -29 -30 -31
leaf_value=-0.078714965198478204 0.031699362054845769 -0.097472897727525973 -0.028776708249685791 0.08608210779416281 -0.029574881013933518 -0.069964121450244374 -0.0030168210494447099 0.054432383300932689 -0.07870165313007238 -0.060323247382461621 0.086320010631424193 0.087590194996641363 -0.075940545159546124 -0.088515620925136609 0.085740120295105915 -0.087374493745196097 -0.087912339261946484 -0.087137086530251304 0.094795696163880214 -0.045140223974637517 -0.090439187009976357 -0.0027466862933828427 0.086933079577260874 -0.057269524809028874 -0.08406588877446533 0.071622435447058666 0.085862650767728033 -0.057368226471183087 0.039949850024116891 -0.0059453637081527486
leaf_weight=0.71130772680044163 1.0022333320230243 0.079898715019225963 0.47861069813370605 3.6701858192682271 0.52895532920956634 0.59365959465503682 1.6946090012788773 0.95767947658896702 2.2108686435967675 2.735162784345448 2.0642982423305494 1.0550219118595123 0.50710074603557842 0.28526283055543888 0.51928416825830936 0.51991589739918964 0.4359042514115572 0.098392926156520844 0.20242807269096363 3.1638208627700788 0.11608202010393132 6.4093938749283552 0.5453821718692774 0.84832782670855511 0.26745288819074609 0.78204823285341263 1.4534719437360761 1.1251048278063525 1.2898588012903918 12.186518594622614
leaf_count=11 9 1 7 8 9 9 9 15 53 54 9 4 9 3 13 7 4 1 1 50 1 88 2 12 4 5 10 22 10 154
internal_value=-1.23951e-09 0.0482562 0.069614 0.0821713 -0.00546779 0.00637776 0.0414145 -0.00893951 -0.0480676 -0.035969 0.0551499 0.0317487 -0.00434306 0.00272176 0.0275507 -0.00626978 0.00233728 -0.0376066 0.0352889 -0.00503908 0.000823724 -0.0167572 0.0365478 0.0132436 -0.00793264 0.0319471 0.0728236 -0.00865636 -0.00474061 -0.00927724
internal_weight=48.5382 4.94 4.2287 3.75008 43.5982 9.88171 5.40759 33.7165 3.54437 4.47412 4.81393 2.74963 30.1722 1.3335 1.04824 29.2145 1.73896 0.736725 0.300821 28.7074 19.1342 9.57321 4.01277 2.44321 1.89783 1.0495 1.56955 15.1214 13.9963 12.7064
internal_count=594 27 16 9 567 100 31 467 78 69 22 13 389 25 22 374 15 6 2 365 227 138 34 23 21 9 11 193 171 161
is_linear=0
shrinkage=0.05


Tree=4
num_leaves=31
num_cat=0
split_feature=0 1 3 0 1 0 3 0 0 0 0 0 0 0 0 1 2 0 0 2 2 0 0 2 2 2 2 0 0 0
split_gain=4.95973 3.90747 1.62945 1.15255 4.12309 2.74209 1.85925 3.08759 1.79096 1.89914 1.71577 1.4253 1.32426 1.1406 0.993758 1.63233 0.948846 1.22595 0.941503 0.670408 0.618385 0.573671 1.21406 1.66554 0.515454 0.566476 0.797038 0.599522 0.568521 0.498758
threshold=-3.3832641107318188e-16 -0.10035529732704161 -0.04505574889481067 4.690523882975175e-17 -0.060236785560846322 -2.5828370329778677e-16 -0.017962302779778835 0.0072390107133810866 0.56107746673710202 0.02190082554421361 0.76729667763785836 -2.9062441792118015e-16 -3.2525831353481501e-16 0.025255949682793957 -8.9362656629537426e-17 -0.10035529732704161 -0.022031949833035466 -3.3298299990939462e-17 1.3347525760198156e-16 -0.030699941329658028 -0.0099171857582405192 -1.0330250957640842e-16 -1.8797507670710602e-16 -0.027446808293461796 -0.055568564683198922 -0.022031949833035466 0.021465975325554613 0.02190082554421361 0.023779728097623323 0.0038752526897688788
decision_type=2 2 2 2 2 2 2 2 2 2 2 2 2 2 2 2 2 2 2 2 2 2 2 2 2 2 2 2 2 2
left_child=1 -1 -3 4 11 -6 7 -5 9 18 13 12 -2 24 -13 20 17 19 -8 -7 -16 22 -21 -24 -9 -26 28 -28 -27 -20
right_child=3 2 -4 6 5 16 8 10 -10 -11 -12 14 -14 -15 15 -17 -18 -19 29 21 -22 -23 23 -25 25 26 27 -29 -30 -31
leaf_value=-0.07096092174489696 -0.071843528741857149 -0.032019455420645007 0.069631264060093331 -0.074890186197065528 -0.065571377993309213 -0.10127222488072252 -0.0048081199081700674 -0.079906518823565365 0.092437537428752423 -0.0048081199081700674 -0.081618649171183166 -0.0768202817773459 0.055000886078896721 -0.0048081199081700674 0.09551202561422692 -0.064597813827288394 0.0825920486232221 0.082680913900409617 0.081651801738503199 0.088800410223287662 -0.023179170105988661 0.054317131398622834 0.091432923901171803 -0.0926047151764261 -0.0057746194366801763 -0.075086669200115974 -0.0048081199081700674 -0.095330090423877634 -0.0048081199081700674 0.034193022668213634
leaf_weight=0.64174358081072558 0.28353414312005043 0.43349301815032948 4.3537054210901251 2.15879813581705 0.53643397241830815 0.12676866352558103 0.50005242601037059 0.47849691659212101 0.59376280941069204 5.9955948628485203 0.85002493858337302 1.4488742053508761 0.75018395856022857 15.053236845880745 0.32137506641447544 0.68729754537343957 1.7534960880875567 0.86777645349502597 0.88157192617654834 0.23587685823440518 0.16664211452007294 0.64117266982793841 0.16694492101669278 0.46636329591274295 2.0082123689353466 1.3427093997597759 0.50085018947720517 0.18880998343229294 0.28863530233502377 1.4880556333810089
leaf_count=12 3 7 14 56 9 1 9 10 18 85 17 27 6 166 8 16 9 4 13 1 3 3 1 3 28 21 6 2 3 33
internal_value=1.31e-10 0.0448955 0.0604265 -0.0059766 0.010462 0.0409628 -0.0102747 -0.0179861 0.00836988 0.00273934 -0.0120548 -0.029519 0.0202093 -0.0090775 -0.0491079 -0.0149452 0.054383 0.034636 0.0379758 0.0091693 0.0549828 0.018439 -0.00802731 -0.044091 -0.0306617 -0.0252188 -0.0420425 -0.00480812 -0.0613232 0.0518491
internal_weight=46.2105 5.42894 4.7872 40.7816 8.45274 4.79483 32.3288 22.8698 9.45904 8.86527 20.711 3.65791 1.03372 19.861 2.62419 1.17531 4.2584 2.5049 2.86968 1.63713 0.488017 1.51036 0.869185 0.633308 4.80771 4.32922 2.321 0.68966 1.63134 2.36963
internal_count=594 33 21 561 94 31 467 309 158 140 253 63 9 236 54 27 22 13 55 9 11 8 5 4 70 60 32 8 24 46
is_linear=0
shrinkage=0.05


Tree=5
num_leaves=31
num_cat=0
split_feature=0 1 0 0 1 0 0 1 3 0 0 0 0 0 0 0 0 0 2 2 0 2 2 0 0 0 2 0 2 0
split_gain=4.26529 2.67349 1.9894 1.42533 2.28855 3.07012 2.3473 1.65871 1.297 2.74194 2.49456 1.71983 1.41026 1.05318 0.888702 0.798301 0.776532 0.889701 0.584471 0.568926 0.525561 0.523377 0.435805 0.621685 0.573506 0.395498 1.80093 0.387521 0.637429 1.27332
threshold=4.690523882975175e-17 -0.10035529732704161 -8.9362656629537426e-17 -3.6550488251401193e-16 -0.060236785560846322 -2.828359071806608e-16 -2.5828370329778677e-16 -0.060236785560846322 -0.017962302779778835 0.0072390107133810866 0.02190082554421361 0.56107746673710202 0.76729667763785836 1.3347525760198156e-16 -4.6828732359424568e-16 0.026333378820065433 0.0038752526897688788 0.005476949228401075 -0.043581053614616387 -0.055568564683198922 0.01292402740826179 -0.0099171857582405192 -0.022031949833035466 -3.3298299990939462e-17 -7.8718762759862308e-17 -2.9984377205159807e-16 -0.024483307264745232 -1.0330250957640842e-16 -0.027446808293461796 -1.8797507670710602e-16
decision_type=2 2 2 2 2 2 2 2 2 2 2 2 2 2 2 2 2 2 2 2 2 2 2 2 2 2 2 2 2 2
left_child=1 2 -1 7 5 25 -6 14 9 -2 13 -12 15 -10 -3 19 -15 -18 20 -11 -19 -4 23 24 27 26 -5 28 -8 -30
right_child=8 3 21 4 6 -7 22 -9 10 12 11 -13 -14 16 -16 -17 17 18 -20 -21 -22 -23 -24 -25 -26 -27 -28 -29 29 -31
leaf_value=-0.058902120920677363 -0.07175008549070018 -0.095675915039651185 0.091547253055336869 0.050043745824913347 -0.059620809568739525 -0.070690201114130033 0.086464307077204372 -0.027082192404925272 -0.0049063146908998392 -0.077927668716725129 -0.0049063146908998392 0.087756675962664704 -0.07795818394497156 0.078768854594640447 0.078831142440181357 -0.0049063146908998392 -0.0049063146908998392 -0.0049063146908998392 0.082603307677219781 -0.020569920412612373 0.086991504918978835 -0.018211151389767352 0.078742949929299408 0.079510734844414899 -0.034206259737734161 0.084213193949163989 -0.095313423529935395 0.083643237435617981 0.08376365511398004 -0.086304441968141077
leaf_weight=1.4459751206450162 2.018444579094651 0.074821554124356093 0.34205136261880398 1.0712998807430265 0.47238698229193676 1.269096300005913 0.23538963496685039 0.46411235630512138 0.46458980906754943 0.47983153909444798 5.0040906565263867 0.57060016132891167 0.7510521374642839 1.4854541495442393 2.9284533560276031 15.097570579499004 0.2521860972046851 0.38031795434653781 0.6591645702719684 4.3667569346726003 0.17682177200913429 0.15914658270776172 1.5688149780035021 0.78890958428382862 0.32505364716052998 0.30516710877418418 0.26600070297718037 0.36231765151023876 0.18951761722564708 0.26251022517681111
leaf_count=29 56 1 8 5 9 31 1 7 9 11 85 18 17 13 8 162 3 6 20 63 4 3 9 4 3 1 3 1 1 3
internal_value=3.41052e-10 0.0246962 -0.0291476 0.0346022 0.0217944 -0.0122804 0.0453885 0.0608889 -0.00976031 -0.0161235 0.00631091 -0.00490631 -0.0106982 0.0415189 0.0744836 -0.00816531 0.0532798 0.0274962 0.0507382 -0.0262486 0.0130379 0.0566954 0.0586785 0.0441305 0.0238278 0.0328515 0.0211309 0.0417983 0.019743 -0.0150015
internal_weight=44.2379 12.531 1.94717 10.5839 7.11646 2.91156 4.2049 3.46739 31.7069 22.7137 8.99323 5.57469 20.6952 3.41853 3.00327 19.9442 2.95394 1.46849 1.2163 4.84659 0.55714 0.501198 3.73251 2.1637 1.37479 1.64247 1.3373 1.04974 0.687417 0.452028
internal_count=594 127 40 87 71 40 31 16 467 309 158 103 253 55 9 236 46 33 30 74 10 11 22 13 9 9 8 6 5 4
is_linear=0
shrinkage=0.05


Tree=6
num_leaves=31
num_cat=0
split_feature=0 1 0 0 1 0 0 1 3 0 0 0 0 0 0 0 0 0 2 0 0 2 2 2 0 1 2 2 2 0
split_gain=3.00116 2.39854 1.44529 1.18684 2.21265 2.12361 1.96079 1.63291 0.98601 2.47365 2.30084 1.43272 1.19598 0.901947 0.821935 0.733848 0.625182 0.854613 0.524239 0.524026 0.383406 1.41061 0.364494 0.356615 0.349804 1.2073 0.506387 0.388972 0.604736 0.480043
threshold=4.690523882975175e-17 -0.10035529732704161 -8.9362656629537426e-17 -3.6550488251401193e-16 -0.060236785560846322 -2.828359071806608e-16 -2.5828370329778677e-16 -0.060236785560846322 -0.017962302779778835 0.0072390107133810866 0.02190082554421361 0.56107746673710202 0.76729667763785836 1.3347525760198156e-16 0.025255949682793957 -4.6828732359424568e-16 0.0038752526897688788 0.005476949228401075 -0.043581053614616387 0.01292402740826179 -2.9984377205159807e-16 -0.024483307264745232 -0.0099171857582405192 -0.055568564683198922 0.013983287775454857 -0.060236785560846322 -0.024483307264745232 -0.024483307264745232 0.021465975325554613 0.01292402740826179
decision_type=2 2 2 2 2 2 2 2 2 2 2 2 2 2 2 2 2 2 2 2 2 2 2 2 2 2 2 2 2 2
left_child=1 2 -1 7 5 20 -6 15 9 -2 13 -12 14 -10 23 -3 -15 -18 19 -19 21 -5 -4 -11 27 26 -26 -25 29 -29
right_child=8 3 22 4 6 -7 -8 -9 10 12 11 -13 -14 16 -16 -17 17 18 -20 -21 -22 -23 -24 24 25 -27 -28 28 -30 -31
leaf_value=-0.059927806108739129 -0.06879342922193013 -0.091664409075137704 0.086525991332962238 0.038476830907119036 -0.056519294260277568 -0.066833942924537912 0.057236170528397724 -0.02929332515983557 -0.0035148969578020399 -0.073153537793286441 -0.0035148969578020399 0.083259204761615482 -0.074686629376562272 0.076181391841275259 -0.0035148969578020399 0.075837249593295117 -0.0035148969578020399 -0.0035148969578020399 0.079323925222887046 0.082126911983692916 0.080075560777961935 -0.093634762389434606 -0.010020076902034148 -0.0035148969578020399 -0.089911470063107624 -0.064718231585649086 -0.0035148969578020399 -0.078331095732297296 -0.0035148969578020399 -0.0035148969578020399
leaf_weight=1.2529732524417339 1.8539650402963186 0.067049756646157088 0.24713306687772274 1.0163841992616651 0.42781999334692988 1.1455840356647966 3.3070009574294095 0.46977214142680068 0.46877468004822942 0.36696832627058018 4.6808868022635579 0.57649429515004147 0.66109981387853523 1.382089249789715 15.705951076000927 2.6406743675470352 0.24281325191259373 0.33886789530515693 0.71720605157315687 0.20150543749332428 0.24898645281791587 0.25218764692544926 0.16174114122986694 0.47866422683000553 0.18322945758700371 1.3934799991548064 0.94826680794358231 0.65847394615412358 0.30120846256613731 0.063918672502040863
leaf_count=29 56 1 8 5 9 31 22 7 9 10 85 18 17 13 166 8 3 6 20 4 1 3 3 7 3 22 10 13 4 1
internal_value=2.23722e-10 0.022158 -0.0332914 0.0317814 0.0193761 -0.0154451 0.0442056 0.0567599 -0.00797456 -0.0134565 0.0064267 -0.0035149 -0.00851495 0.040873 -0.00633855 0.0716895 0.0519195 0.0295707 0.0513024 0.014111 0.0233477 0.0122135 0.0483346 -0.0259669 -0.0216672 -0.0330428 -0.0035149 -0.0035149 -0.0343594 -0.062174
internal_weight=42.4612 11.2373 1.66185 9.57546 6.39796 2.66314 3.73482 3.1775 31.2239 22.6152 8.60864 5.25738 20.7613 3.35126 20.1002 2.70772 2.88248 1.50039 1.25758 0.540373 1.51756 1.26857 0.408874 4.39421 4.02724 2.52498 1.1315 1.50227 1.0236 0.722393
internal_count=594 127 40 87 71 40 31 16 467 309 158 103 253 55 236 9 46 33 30 10 9 8 11 70 60 35 13 25 18 14
is_linear=0
shrinkage=0.05


Tree=7
num_leaves=31
num_cat=0
split_feature=0 1 3 0 1 0 0 3 0 0 0 0 0 0 0 2 0 0 0 1 0 2 2 2 2 2 0 0 0 0
split_gain=2.09051 2.30017 1.42676 0.667139 1.92716 1.41219 1.27525 0.676856 2.32455 1.88504 1.0659 1.05593 0.767724 0.603007 0.752464 0.602102 0.801256 0.752977 0.558305 0.873005 0.51148 0.493152 0.485209 0.452885 0.561506 0.48155 0.512433 0.399451 0.370282 0.339375
threshold=-3.6550488251401193e-16 -0.10035529732704161 -0.04505574889481067 4.690523882975175e-17 -0.060236785560846322 -2.5828370329778677e-16 -2.9062441792118015e-16 -0.017962302779778835 0.0072390107133810866 0.02190082554421361 0.76729667763785836 0.56107746673710202 1.3347525760198156e-16 0.0038752526897688788 0.005476949228401075 -0.022031949833035466 -3.3298299990939462e-17 -4.6117760536212991e-17 -8.9362656629537426e-17 -0.10035529732704161 0.026333378820065433 -0.043581053614616387 -0.070362573489546762 -0.055568564683198922 -0.022031949833035466 0.021465975325554613 0.023779728097623323 -3.1790592413986528e-16 0.02190082554421361 -3.2525831353481501e-16
decision_type=2 2 2 2 2 2 2 2 2 2 2 2 2 2 2 2 2 2 2 2 2 2 2 2 2 2 2 2 2 2
left_child=1 -1 -3 4 6 27 29 8 -5 12 20 -11 -9 -14 -15 16 17 -7 -8 -20 23 22 -16 -10 -25 26 -26 -6 -27 -2
right_child=3 2 -4 7 5 15 18 9 10 11 -12 -13 13 14 21 -17 -18 -19 19 -21 -22 -23 -24 24 25 28 -28 -29 -30 -31
leaf_value=-0.066867311781271005 -0.00060443869425275598 -0.027486114127926994 0.069564810922641274 -0.066730625011518052 0.029850414879361704 0.020329075582716075 -0.068974368659259849 -0.0026802752102333721 -0.072403735348541151 -0.0026802752102333721 -0.072230780226032382 0.079922988143634299 0.073952732274639374 -0.0026802752102333721 0.078540361709147022 0.073681272682733084 0.074615506583996766 -0.099669799848031093 0.045041430227558583 -0.054006171965833107 -0.0026802752102333721 0.07679013167442196 -0.0026802752102333721 -0.0026802752102333721 -0.068285900021559945 -0.0026802752102333721 -0.0026802752102333721 -0.080971244853526733 -0.087777764476171458 0.047490601129380097
leaf_weight=0.45214781211689148 0.9639650140888989 0.44860771670937571 2.4300830885767928 1.7298276815563465 0.11142440512776375 1.1121637374162676 1.003688085824251 0.46532092802226754 0.37785000912845124 4.61216801404953 0.59708509594201942 0.49092807061970223 1.2771831788122656 0.23874219506978978 0.19971304573118687 1.2902128919959055 0.64868684858083736 0.14814057946205128 0.36538845673203468 0.56876238808035839 15.6522168982774 0.66938774101436094 0.31233501434326194 2.1228497214615345 1.0513382665813029 0.44004211947321881 0.32681861519813526 0.30087586864829097 0.13131852447986603 0.59207822009921096
leaf_count=11 9 7 9 56 2 8 27 9 11 85 17 18 13 3 5 9 4 1 11 16 162 20 5 30 21 6 4 7 2 6
internal_value=-7.81171e-11 0.0379736 0.0544406 -0.00334609 0.01046 0.0360721 -0.0160144 -0.00654195 -0.0110493 0.00568871 -0.00639605 -0.00268028 0.0382235 0.0490237 0.0266046 0.0472964 0.0294638 0.00622399 -0.0430829 -0.0152642 -0.00444062 0.0485367 0.0116016 -0.0200392 -0.0151806 -0.0350294 -0.0511968 -0.0510216 -0.00268028 0.0176958
internal_weight=41.1314 3.33084 2.87869 37.8005 7.10539 3.6115 3.49388 30.6951 22.4293 8.26578 20.6995 5.1031 3.16268 2.69736 1.42018 3.1992 1.90899 1.2603 1.93784 0.934151 20.1024 1.18144 0.512048 4.45022 4.07237 1.94952 1.37816 0.4123 0.571361 1.55604
internal_count=594 27 16 567 100 31 69 467 309 158 253 103 55 46 33 22 13 9 54 27 236 30 10 74 63 33 25 9 8 15
is_linear=0
shrinkage=0.05


Tree=8
num_leaves=31
num_cat=0
split_feature=0 1 0 1 0 0 1 0 0 3 0 0 0 0 0 0 0 2 2 0 0 2 0 0 0 2 0 0 0 2
split_gain=2.0147 1.66239 0.962329 1.27804 1.76638 1.20754 1.11546 0.725751 0.601538 0.600636 1.98961 1.52755 1.10746 0.877246 0.570048 0.631446 0.619161 0.53604 0.470518 0.964077 0.45229 0.418955 0.412015 0.84822 0.388635 0.304739 0.28476 0.482116 0.749681 0.327639
threshold=4.690523882975175e-17 -0.10035529732704161 -3.6550488251401193e-16 -0.060236785560846322 -2.828359071806608e-16 -2.5828370329778677e-16 -0.060236785560846322 -8.9362656629537426e-17 -4.6828732359424568e-16 -0.017962302779778835 0.0072390107133810866 0.02190082554421361 0.56107746673710202 0.76729667763785836 1.3347525760198156e-16 0.0038752526897688788 0.005476949228401075 -0.043581053614616387 -0.022031949833035466 -3.3298299990939462e-17 -3.1359044935972198e-16 -0.070362573489546762 0.017858346347475271 0.013983287775454857 -3.3832641107318188e-16 -0.055568564683198922 -4.6117760536212991e-17 -7.2772608551062058e-17 -7.8718762759862308e-17 -0.027446808293461796
decision_type=2 2 2 2 2 2 2 2 2 2 2 2 2 2 2 2 2 2 2 2 2 2 2 2 2 2 2 2 2 2
left_child=1 7 6 4 20 -5 8 -1 -3 10 -2 14 -13 22 -11 -16 -17 21 19 26 24 -18 23 25 -4 -12 27 28 29 -7
right_child=9 2 3 5 -6 18 -8 -9 -10 11 13 12 -14 -15 15 16 17 -19 -20 -21 -22 -23 -24 -25 -26 -27 -28 -29 -30 -31
leaf_value=-0.052835148410609351 -0.064430595573149813 -0.089422610591844101 0.012691496100457601 -0.049623396619106031 -0.062870694410074326 0.079060940049084483 -0.022283357729445969 0.03540951585664228 0.071330163806280558 -0.0026365740913992719 -0.073168440190697334 -0.0026365740913992719 0.077535247447224065 -0.069515951507440138 0.07205931521617219 -0.0026365740913992719 0.076358777752575213 0.074567295103762851 0.071429663069845675 0.073582019515983518 0.058071607717453302 -0.0026365740913992719 -0.0026365740913992719 -0.073525883328859454 -0.094287333145251687 -0.0026365740913992719 -0.092214322152542327 0.089884126801494713 -0.10083514304401718 -0.0037825351735513318
leaf_weight=1.0135416737757621 1.594674833118918 0.059806264936924758 0.81583257392048836 0.36209328472614322 0.98098361864686001 0.15878355503082298 0.41527317464351554 0.30254814121872087 2.1601570695638657 0.45090538822114679 0.15490622632205497 4.5759140597656369 0.50300788413733233 0.53716050088405509 1.1797137111425402 0.23177552968263615 0.16991510801017284 0.60840030387043909 1.1913243606686592 0.76328124105930339 0.57929616421460994 0.28265403769910358 17.884592518210411 0.64333994686603535 0.094756096601486206 1.3658334352076116 0.078166484832763672 0.14841851592063904 0.17187106609344482 0.480557881295681
leaf_count=29 56 1 5 9 31 1 7 11 8 9 5 85 18 17 13 3 5 20 9 4 3 5 192 14 1 25 1 1 1 5
internal_value=3.21049e-10 0.0197265 0.0278582 0.0165165 -0.0107714 0.0366162 0.0529298 -0.0325491 0.0669995 -0.00638971 -0.0106263 0.00535316 -0.00263657 -0.00645838 0.0358481 0.0456083 0.0214701 0.0439149 0.0470516 0.0309267 0.0235324 0.00270801 -0.00476889 -0.0253982 0.00155925 -0.00503809 -0.000445553 0.00702945 -0.00812955 0.016792
internal_weight=39.9595 9.77669 8.4606 5.82536 2.47087 3.3545 2.63524 1.31609 2.21996 30.1828 22.1805 8.00229 5.07892 20.5858 2.92336 2.47246 1.29274 1.06097 2.9924 1.80108 1.48988 0.452569 20.0487 2.16408 0.910589 1.52074 1.0378 0.959631 0.811213 0.639341
internal_count=594 127 87 71 40 31 16 40 9 467 309 158 103 253 55 46 33 30 22 13 9 10 236 44 6 30 9 8 7 6
is_linear=0
shrinkage=0.05


Tree=9
num_leaves=31
num_cat=0
split_feature=0 1 0 1 0 0 1 0 0 0 0 3 0 0 0 1 0 0 1 0 0 0 0 0 0 0 0 0 0 2
split_gain=1.60691 1.31742 0.834153 1.28343 1.35499 1.09336 1.03583 0.66025 0.535382 0.48621 1.08091 1.25432 1.64133 0.771622 0.86208 0.597735 2.77091 1.00732 0.900919 2.19252 0.46043 0.41438 0.668994 1.20834 0.557143 0.588242 0.852112 0.782142 1.48362 0.447779
threshold=4.690523882975175e-17 -0.10035529732704161 -3.6550488251401193e-16 -0.060236785560846322 -2.828359071806608e-16 -2.5828370329778677e-16 -0.060236785560846322 -5.1537807384216964e-17 -4.6828732359424568e-16 0.12346530548158834 0.074674910102134728 -0.017962302779778835 0.0072390107133810866 0.0038752526897688788 1.3347525760198156e-16 -0.060236785560846322 0.15630814918734467 0.1352028401022701 -0.10035529732704161 0.56107746673710202 0.051724186724080613 0.70791395312039085 0.76729667763785836 0.72642235275084799 0.36286313835729073 0.50140870292390094 0.69065079173932009 0.65542124796425216 0.61259147763508348 -0.022031949833035466
decision_type=2 2 2 2 2 2 2 2 2 2 2 2 2 2 2 2 2 2 2 2 2 2 2 2 2 2 2 2 2 2
left_child=1 7 6 4 -4 -5 8 -1 -3 10 11 12 -2 14 -13 16 -11 -17 19 -18 -15 24 23 -23 29 -26 27 28 -27 -19
right_child=9 2 3 5 -6 -7 -8 -9 -10 15 -12 13 -14 20 -16 17 18 21 -20 -21 -22 22 -24 -25 25 26 -28 -29 -30 -31
leaf_value=-0.04116451431797135 -0.062436407907660585 -0.086942257700349912 0.017250277146386005 -0.048643187263120967 -0.060832435064552437 0.04711148793651538 -0.022411800672762452 0.082863794051728057 0.069537839997959192 0.071899918244135025 -0.03665420389352312 0.0017871046710776738 -0.0067807000307676018 0.0017871046710776738 0.070375093666056682 -0.088051397787721669 -0.071225631878191961 0.02075994299745057 -0.056923534626856821 0.075706345323557911 0.081492517952544585 -0.098348756732658194 -0.07347759850059514 0.092221663950512525 0.090435655834510409 -0.098964054957821901 0.0892030355224461 -0.092914689650504145 0.087279629024411193 -0.088791387060302041
leaf_weight=1.1253734570927916 1.4689678512513697 0.056233707815409262 1.4529090449213979 0.33499841764569316 0.89963240362703789 2.7075516059994693 0.40573599189519782 0.11861098278313864 1.9556861519813538 0.82649490237236056 3.0584090072661629 0.43798530288040893 13.488085197284816 3.7104812012985353 1.0912006460130212 0.19258811324834768 0.49943671934306666 0.37828435003757477 1.5749772600829597 0.51641842443495989 0.18419973645359267 0.11992855370044697 0.23097823187708855 0.27145349979400635 0.66605708003044117 0.1557786166667936 0.39214873313903809 0.17943240702152252 0.34100277721881866 0.12380212917924005
leaf_count=35 56 1 9 9 31 22 7 5 8 4 50 9 162 79 13 3 7 4 26 18 10 1 8 2 6 1 2 2 2 2
internal_value=9.26187e-12 0.0184518 0.0260612 0.0151244 -0.0126092 0.0365685 0.050467 -0.0293387 0.0651642 -0.00558753 -0.00893662 -0.00477725 -0.0122468 0.015821 0.045918 0.00654772 -0.00781456 0.022632 -0.0332441 0.00346846 0.00400386 0.0300883 -0.00599758 0.0338265 0.04013 0.053557 0.0305655 -0.00343944 0.0288781 -0.00625271
internal_weight=38.9648 9.05673 7.81275 5.39509 2.35254 3.04255 2.41766 1.24398 2.01192 29.9081 23.4393 20.3809 14.9571 5.42387 1.52919 6.46878 3.41733 3.05145 2.59083 1.01586 3.89468 2.85887 0.62236 0.391382 2.23651 1.73442 1.06836 0.676214 0.496781 0.502086
internal_count=594 127 87 71 40 31 16 40 9 467 379 329 218 111 22 88 55 33 51 25 89 30 11 3 19 13 7 5 3 6
is_linear=0
shrinkage=0.05


Tree=10
num_leaves=31
num_cat=0
split_feature=0 1 0 1 0 0 2 0 1 0 0 0 3 0 0 0 0 1 1 0 0 0 1 0 2 0 2 2 0 0
split_gain=1.39949 1.01384 0.823249 1.2025 1.10817 1.10163 1.44104 0.938672 0.864268 0.634103 0.585647 0.963857 0.720292 1.44666 0.91253 0.879776 0.51044 1.20013 1.05047 0.670249 0.789787 0.615243 1.06504 0.951146 0.484289 0.9475 0.44352 0.41971 0.845404 0.417422
threshold=4.690523882975175e-17 -0.10035529732704161 -3.6550488251401193e-16 -0.060236785560846322 -2.828359071806608e-16 -3.5267397161138575e-16 -0.048515290021896355 -2.5828370329778677e-16 -0.060236785560846322 -8.9362656629537426e-17 0.12346530548158834 0.10679214470367253 -0.017962302779778835 0.0072390107133810866 0.0038752526897688788 1.3347525760198156e-16 0.12738701101343716 -0.060236785560846322 -0.060236785560846322 0.36286313835729073 0.50140870292390094 0.74775653882425874 -0.10035529732704161 0.15630814918734467 -0.024483307264745232 -2.9984377205159807e-16 -0.022031949833035466 -0.022031949833035466 -3.3298299990939462e-17 -4.6828732359424568e-16
decision_type=2 2 2 2 2 2 2 2 2 2 2 2 2 2 2 2 2 2 2 2 2 2 2 2 2 2 2 2 2 2
left_child=1 9 8 4 5 6 -4 -5 29 -1 11 12 13 -2 15 -14 18 21 -12 26 -21 23 -23 -18 -7 -26 -19 28 -9 -3
right_child=10 2 3 7 -6 24 -8 27 -10 -11 16 -13 14 -15 -16 -17 17 19 -20 20 -22 22 -24 -25 25 -27 -28 -29 -30 -31
leaf_value=-0.047411326544505056 -0.060552935122700206 -0.083645644382454809 -0.10201214238022863 -0.043290164898459944 -0.05897731536671072 0.067077911605274876 0.043100764603387069 -0.0023527878706442228 -0.014595217238210383 0.037098206042859232 0.085404233288690526 -0.061015466009815333 -0.002108892362375226 -0.007756713873881012 -0.002108892362375226 0.068638573277391021 0.043148377702363759 0.011259507934787404 -0.083506653633507344 0.084621913591963333 0.018124411751316481 0.072211190830610131 -0.05200513299412815 -0.050448384740673903 -0.092524522730028799 0.072483504899952603 -0.085400893334052042 0.068248396660481145 0.070228034789628538 0.067765535455435427
leaf_weight=0.88371290825307369 1.4217801373452044 0.046707618981599919 0.38792857527732849 0.34526330977678332 0.8413217645138501 0.70228542387485493 0.3060590624809264 0.95143451541662249 0.4332289882004251 0.29642032179981448 0.47810633480548859 0.85728519782423873 0.42023753747344272 14.840831179171799 4.3594159856438637 1.0172246471047399 0.3274884670972823 0.36513423919677734 0.11399349942803283 0.71146685630083073 1.1990359704941509 0.41141122952103615 0.29723575897514809 1.5858306642621753 0.16394845396280289 0.1853554993867873 0.17581715807318765 1.0909025222063056 0.69373077154159557 1.7898625880479813
leaf_count=29 56 1 1 9 31 3 2 9 7 11 2 14 9 185 102 13 2 4 2 6 18 11 10 30 2 1 3 9 4 8
internal_value=-7.06512e-10 0.017056 0.0234845 0.0132951 -0.0118393 0.0108799 -0.0380152 0.0343964 0.0489299 -0.0261846 -0.0054411 -0.00899973 -0.00697828 -0.0123725 0.00815471 0.0427449 0.00895339 0.00382632 0.0528848 0.0289762 0.0428879 -0.019688 0.0201097 -0.0344281 0.0431478 -0.00496426 -0.0201565 0.0441996 0.028253 0.0639148
internal_weight=37.7005 9.11816 7.93803 5.66823 2.5869 1.74558 0.693988 3.08133 2.2698 1.18013 28.5823 22.9168 22.0595 16.2626 5.79688 1.43746 5.66552 5.07342 0.5921 2.45145 1.9105 2.62197 0.708647 1.91332 1.05159 0.349304 0.540951 2.73607 1.64517 1.83657
internal_count=594 127 87 71 40 9 3 31 16 40 467 379 365 241 124 22 88 84 4 31 24 53 21 32 6 3 7 22 13 9
is_linear=0
shrinkage=0.05


Tree=11
num_leaves=31
num_cat=0
split_feature=0 1 0 0 1 0 3 0 0 0 0 0 0 0 0 1 0 0 0 0 2 0 0 2 1 0 0 0 2 0
split_gain=1.56124 1.12444 0.657782 0.65497 0.65035 0.540172 0.372804 1.46262 1.00315 0.998027 0.81679 0.675517 0.326391 0.288524 0.978861 0.35673 0.372937 0.818082 0.39158 0.7402 0.27558 0.959432 0.743654 0.460527 0.475939 0.444501 0.429195 0.445287 0.544003 0.370768
threshold=4.690523882975175e-17 -0.10035529732704161 -3.8676238210157654e-16 -3.3298299990939462e-17 -0.060236785560846322 -5.1537807384216964e-17 -0.017962302779778835 0.0072390107133810866 0.56107746673710202 0.0038752526897688788 1.3347525760198156e-16 0.76729667763785836 -5.8311512899843928e-17 0.083303354279023814 0.067689482066837933 -0.060236785560846322 0.013983287775454857 0.025255949682793957 0.038361685733776026 0.053542930208135116 -0.027446808293461796 -3.2525831353481501e-16 -3.3832641107318188e-16 -0.022031949833035466 -0.060236785560846322 -7.2772608551062058e-17 -3.1359044935972198e-16 -2.9984377205159807e-16 -0.030699941329658028 -2.5828370329778677e-16
decision_type=2 2 2 2 2 2 2 2 2 2 2 2 2 2 2 2 2 2 2 2 2 2 2 2 2 2 2 2 2 2
left_child=1 5 -3 12 -5 -1 7 -2 9 10 -8 13 20 14 15 -9 -17 -18 -19 -20 22 -22 -4 25 -25 -23 -24 -28 -29 -26
right_child=6 2 3 4 -6 -7 8 11 -10 -11 -12 -13 -14 -15 -16 16 17 18 19 -21 21 23 26 24 29 -27 27 28 -30 -31
leaf_value=-0.038856801558237446 -0.058946787866517913 0.053576753576421256 0.058243898543011478 -0.053970117322882663 0.068105289712940054 0.077696807462834319 -0.0022274937012467244 -0.0022274937012467244 0.07188573599449008 -0.0022274937012467244 0.067179645935899243 -0.065314704610947336 -0.054477426935975432 -0.0022274937012467244 -0.058700319524668698 -0.0022274937012467244 -0.058439537383911146 -0.0022274937012467244 -0.053909032601347745 -0.0022274937012467244 -0.087012403655018722 -0.02908207104607273 -0.087981959865309933 -0.013221824208454833 -0.016355331396063561 0.079704937264812314 0.057987166208424978 -0.062251162817467037 0.047974151603702879 0.066663256451060804
leaf_weight=1.0161681468598542 1.3654175940901065 1.6882345192134369 0.93845587223768234 0.12379808351397514 0.91903307288885094 0.1101869698613881 0.40630304440856224 6.9528920054435783 0.5107884807512163 5.1265469491481781 0.94420148432254791 0.46050147339701553 0.19016977585852135 5.9631144143640986 0.95305621996522027 1.0202801413834075 1.2099792361259458 1.8575475923717024 1.1490526832640169 0.41175410896539677 0.27219042181968633 0.76297863759100437 0.13385215029120445 0.41371495276689474 0.16444760933518354 0.10707616806030218 0.28933557868003845 0.29660792835056782 0.17979006096720584 0.73827454075217513
leaf_count=35 56 12 5 5 6 5 9 73 18 118 13 17 6 65 16 17 22 20 19 4 4 10 2 9 4 1 2 12 2 7
internal_value=6.42771e-12 0.0190088 0.0262594 0.0179193 0.0536133 -0.0274548 -0.00559856 -0.00888037 0.00442538 -0.000894624 0.0408542 -0.00545856 0.00962343 -0.00404631 -0.00984187 -0.00614669 -0.0160893 -0.0231069 -0.0106004 -0.0301694 0.0124605 0.00151206 0.0271058 0.0125322 0.0311873 -0.0156938 -0.00537774 0.00906169 -0.0206527 0.0515399
internal_weight=36.6757 8.34431 7.21796 5.52972 1.04283 1.12636 28.3314 21.3436 6.98784 6.47705 1.3505 19.9782 4.48689 19.5177 13.5546 12.6015 5.64861 4.62833 3.41835 1.56081 4.29672 2.45868 1.83804 2.18649 1.31644 0.870055 0.899586 0.765734 0.476398 0.902722
internal_count=594 127 87 75 11 40 467 309 158 140 22 253 64 236 171 155 82 65 43 23 58 35 23 31 20 11 18 16 14 11
is_linear=0
shrinkage=0.05


Tree=12
num_leaves=31
num_cat=0
split_feature=0 1 0 0 1 1 0 0 0 1 3 0 0 0 3 0 0 0 1 0 2 2 2 0 0 0 0 0 3 0
split_gain=1.33667 0.876473 0.586225 0.396392 1.07009 0.710948 1.21494 0.912527 0.324854 1.8592 0.963717 1.26938 0.920859 0.867902 0.976481 1.3215 0.623483 0.78392 0.475798 0.469878 0.567891 0.748914 0.553086 0.614974 0.426284 0.798808 0.420431 0.412331 0.756436 0.451989
threshold=4.690523882975175e-17 -0.10035529732704161 -8.9362656629537426e-17 -3.6550488251401193e-16 -0.060236785560846322 -0.060236785560846322 -2.828359071806608e-16 -2.5828370329778677e-16 0.36286313835729073 -0.060236785560846322 -0.017962302779778835 0.56107746673710202 0.65542124796425216 0.15630814918734467 -0.04505574889481067 0.120169872685519 0.76729667763785836 0.69065079173932009 -0.10035529732704161 0.029385043019508193 -0.048515290021896355 0.013909260276705028 0.013909260276705028 0.071465062337004684 0.043078915344232437 0.038973039578176112 0.0072390107133810866 0.01129068065434719 -0.017962302779778835 0.012293680479468811
decision_type=2 2 2 2 2 2 2 2 2 2 2 2 2 2 2 2 2 2 2 2 2 2 2 2 2 2 2 2 2 2
left_child=1 2 -1 4 -3 6 -5 -7 13 10 -10 -12 -11 14 26 19 17 -14 -17 20 -16 27 -21 24 25 -24 -2 28 -22 -29
right_child=8 3 -4 5 -6 7 -8 -9 9 12 11 -13 16 -15 15 18 -18 -19 -20 22 21 -23 23 -25 -26 -27 -28 29 -30 -31
leaf_value=-0.04673828100759609 -0.058894052405112134 0.061883060988377529 0.036255314336542083 0.02530494945767486 -0.025634260157230328 -0.044631684487199549 -0.057047665537847271 0.043418956864687747 -0.058798287398617505 0.071272068097173777 -0.022552332006774558 0.070367360732840389 -0.085037623964456827 -0.065905622042844586 -0.0091595083768625362 -0.0091595083768625362 -0.070381357920169488 0.05531862760793721 0.080316457190981294 -0.0091595083768625362 -0.0091595083768625362 -0.0091595083768625362 0.085195509322249022 -0.0091595083768625362 0.07142964891477474 -0.0091595083768625362 -0.016533679827118817 0.095451628742021261 0.032712903393328642 0.029354275429151908
leaf_weight=0.77163246553391218 0.63629364036024139 1.6302827484905722 0.29378045536577679 1.1455743089318269 0.44451090693473805 0.3342708703130487 0.73533236421644677 2.4578924737870689 1.0601658411324022 1.1434833556413639 0.31734109669923793 0.49046508781611919 0.12382215633988392 0.61438076943159003 1.9132866580039287 0.09547542966902256 0.21796232089400291 0.5061027780175209 0.68456672132015306 6.4963595662266016 0.51727802120149413 0.37769081443548191 0.23919224739074685 0.22229440510272969 0.5947699062526226 0.22923705726861954 7.374683253467083 0.28680026903748546 1.3022809876128973 2.6343868160620332
leaf_count=29 27 9 11 9 7 9 31 22 21 9 5 18 2 8 47 2 8 5 3 103 19 10 1 4 3 2 108 2 27 33
internal_value=-1.08561e-09 0.0182917 -0.0238534 0.024946 0.0431331 0.0168711 -0.00689045 0.0328778 -0.00508999 0.00838256 -0.0274491 0.0136936 0.0419938 -0.00723687 -0.00570983 0.00157925 0.00250845 0.0277293 0.0650101 -0.00176084 0.00764456 0.016634 -0.00915951 0.0237488 0.0433326 0.00765757 -0.0198983 0.0242058 0.00552196 0.0358437
internal_weight=35.8916 7.81328 1.06541 6.74786 2.07479 4.67307 1.88091 2.79216 28.0783 3.85934 1.86797 0.807806 1.99137 24.219 23.6046 15.5936 0.847887 0.629925 0.780042 14.8136 7.03172 5.11844 7.78185 1.28549 1.0632 0.468429 8.01098 4.74075 1.81956 2.92119
internal_count=594 127 40 87 16 71 40 31 467 68 44 23 24 399 391 256 15 7 5 251 138 91 113 10 6 3 135 81 46 35
is_linear=0
shrinkage=0.05


Tree=13
num_leaves=31
num_cat=0
split_feature=0 1 0 0 1 1 0 0 0 0 0 3 0 0 0 0 1 1 0 1 0 0 0 0 2 0 0 0 0 2
split_gain=1.23043 0.791507 0.495649 0.447285 0.850788 0.73847 1.08427 0.788515 0.488886 0.41298 0.787679 0.520015 1.15198 0.648695 0.76202 0.455894 0.956255 0.870771 0.432582 0.858191 0.578658 0.538615 0.366961 0.854975 0.416474 0.348305 0.397923 0.494855 0.542451 0.296658
threshold=4.690523882975175e-17 -0.10035529732704161 -8.9362656629537426e-17 -3.6550488251401193e-16 -0.060236785560846322 -0.060236785560846322 -2.828359071806608e-16 -2.5828370329778677e-16 -4.6828732359424568e-16 0.12346530548158834 0.10679214470367253 -0.017962302779778835 0.0072390107133810866 0.0038752526897688788 1.3347525760198156e-16 0.12738701101343716 -0.060236785560846322 -0.060236785560846322 0.74775653882425874 -0.10035529732704161 0.15630814918734467 0.14116727764240913 0.36286313835729073 0.50140870292390094 -0.022031949833035466 0.61259147763508348 0.65542124796425216 0.76729667763785836 0.69065079173932009 -0.022031949833035466
decision_type=2 2 2 2 2 2 2 2 2 2 2 2 2 2 2 2 2 2 2 2 2 2 2 2 2 2 2 2 2 2
left_child=1 2 -1 4 8 6 -5 -7 -3 10 11 12 -2 14 -13 17 18 -11 20 -20 21 -17 24 -24 -18 -25 -27 28 -28 -9
right_child=9 3 -4 5 -6 7 -8 29 -10 15 -12 13 -14 -15 -16 16 22 -19 19 -21 -22 -23 23 25 -26 26 27 -29 -30 -31
leaf_value=-0.045764502526471622 -0.055720984104225324 -0.086050425404269701 0.03163983305219862 0.021384369326866166 -0.019997204316007513 -0.042365228112138081 -0.054217464379303394 0.028110709506386358 0.064137343421755172 0.077873059581008097 -0.061411660162286164 -0.0019820471867368489 -0.0069009224695272958 -0.0019820471867368489 0.065599087840861423 -0.079762284480270534 0.016175838851897436 -0.080176160389965986 0.067651894139768839 -0.049298682802516355 -0.04645294943402397 0.076091183182255884 0.078301072705155461 -0.095801465074807954 -0.080979596035808718 0.078611144315847203 -0.080868498604968711 -0.068803186708101691 0.045979450635555856 0.064354205223984662
leaf_weight=0.72632169770076871 1.3199969250708878 0.056078892201185337 0.28914926014840581 1.2186014242470258 0.42797710373997677 0.31506591103971038 0.77642363682389248 1.4996374212205414 1.6043296679854393 0.47884313762187958 0.67226392682641645 0.40082306321710592 14.284142244607208 4.0551541047170758 0.86763700470328331 0.07682686299085606 0.4040595218539238 0.106538075953721 0.34769783541560173 0.28580040857195843 1.4162765368819235 0.19909204542636871 0.7162441313266753 0.075934067368507163 0.15172405168414194 0.19795572757720947 0.10302672535181046 0.19874391332268715 0.46323233097791672 0.90550206601619643
leaf_count=29 56 1 11 9 7 9 31 13 8 2 14 9 185 102 13 1 4 2 11 10 30 1 6 1 3 2 2 8 5 9
internal_value=1.21289e-10 0.017453 -0.0237241 0.0235989 0.0428625 0.015067 -0.00803834 0.0320126 0.0590649 -0.00508786 -0.00813842 -0.00642712 -0.0110307 0.00706665 0.0382939 0.00753035 0.00228103 0.0491085 -0.0203536 0.0148901 -0.0335475 0.0326953 0.0250603 0.0362724 -0.0103467 0.00729649 0.0154263 -0.000923739 0.0229004 0.0417559
internal_weight=34.6411 7.81909 1.01547 6.80362 2.08839 4.71523 1.99503 2.72021 1.66041 26.822 21.6 20.9278 15.6041 5.32361 1.26846 5.222 4.63661 0.585381 2.32569 0.633498 1.6922 0.275919 2.31092 1.75514 0.555784 1.03889 0.962959 0.765003 0.566259 2.40514
internal_count=594 127 40 87 16 71 40 31 9 467 379 365 241 124 22 88 84 4 53 21 32 2 31 24 7 18 17 15 7 22
is_linear=0
shrinkage=0.05


Tree=14
num_leaves=31
num_cat=0
split_feature=0 1 0 0 1 1 0 0 0 0 2 0 0 2 2 3 0 0 0 0 0 0 0 0 2 0 0 3 2 0
split_gain=1.23076 0.766723 0.421458 0.402091 0.725765 0.631609 1.05043 0.742004 0.293908 0.286814 0.499058 0.264641 0.35383 0.663748 0.254801 0.240058 1.21228 0.811489 0.709401 0.482175 0.249573 0.863166 0.236643 0.236226 0.504082 0.440674 0.223515 0.215475 0.211202 0.285753
threshold=4.690523882975175e-17 -0.10035529732704161 -8.9362656629537426e-17 -3.6550488251401193e-16 -0.060236785560846322 -0.060236785560846322 -2.828359071806608e-16 -2.5828370329778677e-16 1.5460887748976354e-16 -3.3298299990939462e-17 -0.022031949833035466 -4.3596230403765455e-16 -3.8676238210157654e-16 0.021465975325554613 -0.0099171857582405192 -0.017962302779778835 0.0038752526897688788 0.56107746673710202 0.0072390107133810866 0.76729667763785836 0.083303354279023814 0.074674910102134728 -4.6117760536212991e-17 -3.1359044935972198e-16 -0.024483307264745232 -3.3832641107318188e-16 -3.1790592413986528e-16 -0.017962302779778835 -0.027446808293461796 -1.0330250957640842e-16
decision_type=2 2 2 2 2 2 2 2 2 2 2 2 2 2 2 2 2 2 2 2 2 2 2 2 2 2 2 2 2 2
left_child=1 2 -1 4 -3 6 23 26 27 10 22 -6 13 -13 -4 18 -17 -18 -10 20 21 -20 28 24 25 -5 -7 -2 -9 -30
right_child=8 3 14 5 11 7 -8 9 15 -11 -12 12 -14 -15 -16 16 17 -19 19 -21 -22 -23 -24 -25 -26 -27 -28 -29 29 -31
leaf_value=-0.044832734053511542 -0.061640381074109775 0.058618387437709897 0.07385800533520144 0.041997587015727207 -0.081263294284266319 0.022691262251983143 -0.052611554947909894 0.070747302660092937 -0.050902540553561595 0.064981416287247823 0.063117501359076109 0.098058964256330358 -0.075527622021417717 -0.087914149376137646 -0.022819329944966448 0.064456614366949591 -0.0011029871904112167 0.068157938190106168 -0.0062177950222675861 -0.059121207653964752 -0.0011029871904112167 -0.078085477063088202 -0.088402230226683448 0.05042016274058983 -0.085880629412982065 -0.08871001645477708 -0.070792226145922094 -0.010559917169328316 -0.030099055345918307 0.033351294081036723
leaf_weight=0.68521455628797412 0.38712039776146412 1.5573844872415064 0.14547528419643641 0.49154391139745712 0.11116926372051239 0.092117216438055038 0.74208410456776608 0.12820316851139113 0.87260429561138764 0.82138869166374129 0.61245930194854736 0.15816569700837135 0.089956074953079113 0.068868726491928101 0.12822824902832497 0.75072271004319091 4.7616401929408312 0.43204458523541678 12.720903500914577 0.39930713549256225 4.9977671951055518 0.43198657035827714 0.063536636531352997 0.47898031398653917 0.12559450045228004 0.074221551418304443 0.20904139615595374 0.44238441810012119 0.36182068288326308 0.34821856021881059
leaf_count=29 17 9 8 3 2 2 31 1 39 6 7 2 2 1 3 12 118 18 162 17 65 9 1 3 2 1 7 10 4 3
internal_value=4.52667e-10 0.0178681 -0.0238828 0.0239947 0.0427682 0.0158008 -0.00607533 0.0316673 -0.0051113 0.0411916 0.028287 -0.0148849 0.00839413 0.0416458 0.0285653 -0.0041536 0.0046385 -0.00110299 -0.00684448 -0.00477195 -0.00357629 -0.00857818 0.00463121 0.0234322 0.00473462 0.0248503 -0.0421979 -0.0343986 0.0116829 0.00101836
internal_weight=33.6902 7.49367 0.958918 6.53475 1.98554 4.54921 1.91242 2.63679 26.1965 2.33563 1.51424 0.42816 0.31699 0.227034 0.273704 25.367 5.94441 5.19368 19.4226 18.55 18.1507 13.1529 0.901779 1.17034 0.69136 0.565765 0.301159 0.829505 0.838242 0.710039
internal_count=594 127 40 87 16 71 40 31 467 22 16 7 5 3 11 440 148 136 292 253 236 171 9 9 6 4 9 27 8 7
is_linear=0
shrinkage=0.05


Tree=15
num_leaves=31
num_cat=0
split_feature=0 1 0 0 1 0 0 1 0 2 0 0 2 0 2 0 0 0 0 2 0 0 0 2 0 0 0 0 1 1
split_gain=1.15068 0.592695 0.482262 0.463793 0.595788 0.873812 0.589237 0.431192 0.435026 0.412332 0.914752 0.277596 0.480941 0.270818 0.237865 0.234902 0.232356 0.231066 0.398096 0.437496 0.224606 0.33771 0.318372 0.381501 0.58338 0.209932 0.661969 0.395551 0.716987 0.670738
threshold=4.690523882975175e-17 -0.10035529732704161 -8.9362656629537426e-17 -3.6550488251401193e-16 -0.060236785560846322 -2.828359071806608e-16 -2.5828370329778677e-16 -0.060236785560846322 -4.6828732359424568e-16 -0.024483307264745232 -2.9984377205159807e-16 -3.3298299990939462e-17 -0.022031949833035466 1.5460887748976354e-16 -0.0099171857582405192 -4.6117760536212991e-17 -3.1790592413986528e-16 -4.3596230403765455e-16 -3.8676238210157654e-16 0.021465975325554613 -7.2772608551062058e-17 -7.8718762759862308e-17 -1.0330250957640842e-16 -0.027446808293461796 -1.8797507670710602e-16 0.12346530548158834 0.10679214470367253 0.12738701101343716 -0.060236785560846322 -0.060236785560846322
decision_type=2 2 2 2 2 2 2 2 2 2 2 2 2 2 2 2 2 2 2 2 2 2 2 2 2 2 2 2 2 2
left_child=1 2 -1 7 5 9 16 8 -3 -5 -11 12 15 -2 -4 20 -6 -9 19 -19 21 22 23 -8 -25 26 -15 28 -27 -29
right_child=13 3 14 4 6 -7 11 17 -10 10 -12 -13 -14 25 -16 -17 -18 18 -20 -21 -22 -23 -24 24 -26 27 -28 29 -30 -31
leaf_value=-0.04381597010233907 -0.03367343351366283 -0.084913773347471508 0.071988700343528486 0.042378235476831061 0.024658042883144913 -0.051144317301450137 0.069109157163674703 -0.075459461939655081 0.062226030156247808 -0.087250732816657364 0.067884325659401099 0.063818869738111614 0.062179934603159674 -0.0046216590428317991 -0.018270951783482703 -0.088387952188619834 -0.069316066325202652 0.092746616940563423 -0.073321963672199494 -0.082087223170986739 0.073706323677696417 -0.092514856242701088 0.072436801125395939 0.073490605392499242 -0.077280893346959201 0.074879665518024122 -0.05869830126838415 -0.019510230668130183 -0.077022930667884446 0.020424097892084651
leaf_weight=0.63623292278498411 0.79137765988707798 0.052099276334047206 0.1701289601624012 0.7280925065279007 0.10091165080666542 0.69774556532502163 0.11489099264144942 0.085005883127450943 1.402860455214977 0.22381734848022461 0.16512654721736841 0.75494942069053572 0.56973947584629059 19.854304583743222 0.12784505821764458 0.064866334199905396 0.18892457708716426 0.16521917283535004 0.084938276559114345 0.045673422515392303 0.11977501213550568 0.087078742682933807 0.16335983574390411 0.087693706154823747 0.23905657231807664 0.42088671028614044 0.58252855017781158 2.1021401593461628 0.095264904201029732 2.1037728022783999
leaf_count=29 27 1 8 5 2 31 1 2 8 3 1 6 7 338 3 1 7 2 2 1 1 1 1 1 3 2 14 53 2 31
internal_value=-8.23247e-10 0.0178729 -0.0192309 0.0235166 0.0145452 -0.00724559 0.030419 0.0445597 0.0569572 0.0201753 -0.021388 0.0392424 0.0264152 -0.00487351 0.033263 0.00317334 -0.0365973 -0.00280442 0.0180727 0.0548825 0.010489 -0.000451734 0.0127991 -0.00926051 -0.0368166 -0.0039676 -0.00616305 0.00553417 0.0468434 0.000464684
internal_weight=33.0263 7.07603 0.934207 6.14182 4.30603 1.81478 2.49125 1.8358 1.45496 1.11704 0.388944 2.20141 1.44646 25.9503 0.297974 0.876721 0.289836 0.380837 0.295831 0.210893 0.811855 0.69208 0.605001 0.441641 0.32675 25.1589 20.4368 4.72206 0.516152 4.20591
internal_count=594 127 40 87 71 40 31 16 9 9 4 22 16 467 11 9 9 7 5 3 8 7 6 5 4 440 352 88 4 84
is_linear=0
shrinkage=0.05


Tree=16
num_leaves=31
num_cat=0
split_feature=0 1 0 0 1 0 1 2 0 0 2 0 0 0 0 1 1 0 0 0 1 0 0 0 0 0 0 2 0 3
split_gain=1.01428 0.557995 0.427686 0.459084 0.451536 0.425844 0.412663 0.226417 0.217274 0.327691 0.374093 0.211556 0.201284 0.580734 0.33019 0.61563 0.522472 0.336593 0.791415 0.330757 0.851206 0.467907 0.441991 0.288656 0.351218 0.348275 0.440734 0.58289 0.341736 0.288205
threshold=4.690523882975175e-17 -0.10035529732704161 -3.6550488251401193e-16 -3.3298299990939462e-17 -0.060236785560846322 -8.9362656629537426e-17 -0.060236785560846322 -0.0099171857582405192 -4.3596230403765455e-16 -3.8676238210157654e-16 0.021465975325554613 -5.8311512899843928e-17 0.12346530548158834 0.10679214470367253 0.12738701101343716 -0.060236785560846322 -0.060236785560846322 0.36286313835729073 0.50140870292390094 0.72642235275084799 -0.10035529732704161 0.15630814918734467 0.14116727764240913 0.61259147763508348 0.65542124796425216 0.76729667763785836 0.72642235275084799 -0.022031949833035466 0.69065079173932009 -0.017962302779778835
decision_type=2 2 2 2 2 2 2 2 2 2 2 2 2 2 2 2 2 2 2 2 2 2 2 2 2 2 2 2 2 2
left_child=1 5 6 -4 -5 -1 -3 -7 -8 10 -10 -9 13 29 15 -14 19 -18 -19 21 -21 22 -16 -20 -25 26 27 -26 -29 -2
right_child=12 2 3 4 -6 7 8 11 9 -11 -12 -13 14 -15 16 -17 17 18 23 20 -22 -23 -24 24 25 -27 -28 28 -30 -31
leaf_value=-0.043013981079909322 -0.0085989122956928298 0.056468667606401547 0.0057999260188829746 -0.04567816927393302 0.062630575538355604 0.070139507651385047 -0.074283202656136527 0.092181225072953787 0.089428453870187052 -0.070910725211684247 -0.079712318931317264 -0.055351559608116212 0.072788021875122164 -0.058269980041999431 -0.072876385684295511 -0.075458036673048068 -0.017424082043502123 0.074383094097485031 -0.092787729710058969 0.065830438401035363 -0.050780742825539772 -0.043946427973034795 0.073518170018871967 0.074668443929197179 -0.090820505272324478 -0.066775050907890404 0.077451075315652915 -0.079909988716833413 0.074277739396708675 0.0051016575853326408
leaf_weight=0.60883125057443976 15.58216086775065 1.3640047088265417 3.2372160535305734 0.11149556562304497 0.70277814567089025 0.16103820409625769 0.084342043846845627 0.032362908124923706 0.14964381605386734 0.07484014332294453 0.041828297078609467 0.097519882023334392 0.37527146935462952 0.52915901131927867 0.072480931878089794 0.086098961532114937 0.4998374246060856 0.60669688135385491 0.075000010430812836 0.34413039870560169 0.28701023943722237 1.1726976325735448 0.17861774563789368 0.16701871156692505 0.15560253709554672 0.17667140066623688 0.18191298097372055 0.046926151961088181 0.15344205498695374 5.0931861810386208
leaf_count=29 241 9 60 5 6 8 2 1 2 2 1 2 2 14 1 2 7 6 1 13 11 27 1 2 2 8 2 1 2 124
internal_value=-5.32482e-10 0.0173855 0.0230999 0.0142412 0.0478002 -0.0192361 0.0440318 0.0305255 -0.00434611 0.0178032 0.0524786 -0.0185908 -0.00449466 -0.00654767 0.00501158 0.045123 0.000517647 0.018292 0.0297118 -0.0173274 0.0128017 -0.030683 0.0312606 0.00137953 0.00939082 -0.00586704 0.0141386 -0.0182162 0.038167 -0.0052239
internal_weight=32.4498 6.6659 5.76615 4.05149 0.814274 0.899752 1.71466 0.290921 0.350654 0.266312 0.191472 0.129883 25.7839 21.2045 4.57942 0.46137 4.11805 2.06311 1.56327 2.05494 0.631141 1.4238 0.251099 0.956574 0.881574 0.714555 0.537884 0.355971 0.200368 20.6753
internal_count=594 127 87 71 11 40 16 11 7 5 3 3 467 379 88 4 84 31 24 53 24 29 2 18 17 15 7 5 3 365
is_linear=0
shrinkage=0.05


Tree=17
num_leaves=31
num_cat=0
split_feature=0 1 0 0 0 1 0 1 0 0 0 3 0 1 0 0 0 0 2 0 0 0 3 2 2 0 0 1 0 0
split_gain=1.0025 0.468378 0.470875 0.479796 0.44767 0.37253 0.348648 0.28329 0.296488 0.371559 0.252118 0.492582 0.255162 0.609981 0.458776 0.571447 0.39203 0.324826 0.341375 0.245167 0.221238 0.262373 0.217207 0.199979 0.324688 0.199561 0.199465 0.491026 0.445388 0.703417
threshold=4.690523882975175e-17 -0.10035529732704161 -3.6550488251401193e-16 -3.5179211439343762e-17 -8.9362656629537426e-17 -0.060236785560846322 -4.6828732359424568e-16 -0.060236785560846322 -4.3596230403765455e-16 -3.8676238210157654e-16 1.9148156630594754e-16 -0.017962302779778835 2.8737552135632683e-16 -0.10035529732704161 0.005476949228401075 0.0077222336925706798 0.0091535397086173562 0.0081917031312101121 -1.0000000180025095e-35 1.3347525760198156e-16 0.01129068065434719 0.012083388016537416 -0.017962302779778835 -0.024483307264745232 -0.0099171857582405192 -4.6117760536212991e-17 0.012293680479468811 -0.060236785560846322 0.01292402740826179 0.013983287775454857
decision_type=2 2 2 2 2 2 2 2 2 2 2 2 2 2 2 2 2 2 2 2 2 2 2 2 2 2 2 2 2 2
left_child=1 4 6 25 -1 -5 -3 -8 -9 -10 11 -2 13 -12 -14 -16 17 18 -17 -13 23 22 -22 -18 -25 -4 27 -23 -28 -30
right_child=10 2 3 5 -6 -7 7 8 9 -11 12 19 14 -15 15 16 20 -19 -20 -21 21 26 -24 24 -26 -27 28 -29 29 -31
leaf_value=-0.04197139519418322 -0.06180820215599634 -0.084429505378253611 0.0066940458005157154 -0.028603709635468679 0.035521118640936857 0.061600561093361178 0.060635598339835534 -0.072184026482044736 0.06244415639773955 -0.069129155835568973 0.062984339907622269 -0.014024593882006678 -0.046787427773133529 -0.039664130402909163 0.05838648965394963 0.083560981373238336 0.053222029427422601 -0.072140053381441513 -0.083112198456178399 0.063582314750352573 -0.074363978317811483 0.088478059810248338 0.069188033808062738 -0.078594796307364656 0.031705824986943722 -0.064310641283947853 -0.07152897639216757 -0.052908710332312571 0.094662787647235389 -0.0040941542177020855
leaf_weight=0.58046482456848025 0.5414381418377161 0.050642289221286663 3.0763467717915773 0.13672661781311035 0.27450821455568064 0.7027716152370006 1.2342594191431997 0.082557760179042816 0.24961720779538155 0.068350262939929851 0.42052724771201611 0.39666610024869686 0.61898115649819629 0.22067430242896335 0.37098940461874264 0.080322166904807091 0.3259158730506897 0.36710983701050282 0.049749180674555471 0.13688366487622261 0.20829659141600132 0.17619621753692627 0.030167207121851614 0.097187139093875885 0.21282228268683212 0.10224498994648445 0.24145901575684803 0.09426006302237766 0.18190670758486049 20.531520545482635
leaf_count=29 27 1 56 6 11 6 8 2 3 2 8 9 21 10 12 2 6 9 1 3 5 1 1 2 4 3 3 2 3 338
internal_value=3.80793e-10 0.0174206 0.022594 0.0132894 -0.0170907 0.0469093 0.0447763 0.0487788 0.0122409 0.0341612 -0.00451538 -0.0282096 -0.00346408 0.0276571 -0.0043101 -0.00316534 -0.00417588 -0.0480837 0.0198125 0.00588567 -0.00318808 -0.00404919 -0.0562037 0.025876 -0.00287313 0.00441006 -0.00346324 0.0392016 -0.0040139 -0.00322686
internal_weight=31.8616 6.55849 5.70352 4.01809 0.854973 0.839498 1.68543 1.63478 0.400525 0.317967 25.3031 1.07499 24.2281 0.641202 23.5869 22.9679 22.5969 0.497181 0.130071 0.53355 22.0997 21.4638 0.238464 0.635925 0.310009 3.17859 21.2253 0.270456 20.9549 20.7134
internal_count=594 127 87 71 40 12 16 15 7 5 467 39 428 18 410 389 377 12 3 12 365 353 6 12 6 59 347 3 344 341
is_linear=0
shrinkage=0.05


Tree=18
num_leaves=31
num_cat=0
split_feature=0 1 0 0 0 2 0 2 0 0 0 0 0 0 2 2 0 2 2 2 0 0 0 0 0 0 1 1 1 3
split_gain=0.819657 0.635356 0.186508 1.10797 0.905235 0.877123 0.948749 0.714485 0.559979 0.915819 0.533599 0.467414 0.462472 0.932826 0.489011 1.35734 0.578241 0.459492 0.394845 0.783229 0.367656 0.592476 0.871773 0.523204 0.464938 0.539193 0.850215 0.403013 0.346226 0.310351
threshold=-3.3832641107318188e-16 -0.10035529732704161 0.036662015029637014 0.034199543952801496 0.040185732317008838 -0.070362573489546762 0.029385043019508193 -0.043581053614616387 0.032553643797373549 0.03310082133763214 0.029385043019508193 0.038973039578176112 0.043519125574006098 0.050174866404142121 -0.022031949833035466 -0.0099171857582405192 0.040305371807181571 -0.086169000715017305 -0.055568564683198922 -0.043581053614616387 0.067689482066837933 0.051063922813859276 0.067079953910791565 0.083303354279023814 0.053542930208135116 0.062954319134914852 -0.060236785560846322 -0.10035529732704161 -0.10035529732704161 -0.017962302779778835
decision_type=2 2 2 2 2 2 2 2 2 2 2 2 2 2 2 2 2 2 2 2 2 2 2 2 2 2 2 2 2 2
left_child=1 -1 3 5 7 6 29 11 10 -10 -7 -4 14 -14 -6 -16 -17 -5 -19 -20 21 -15 24 28 -23 26 -26 -27 -22 -2
right_child=2 -3 4 17 12 8 -8 -9 9 -11 -12 -13 13 20 15 16 -18 18 19 -21 23 22 -24 -25 25 27 -28 -29 -30 -31
leaf_value=-0.049314706432751938 -0.030036886935524448 0.037550298392757482 0.084745109331583759 -0.081975716526196299 0.085043588875141254 0.0026765995444155608 -0.092807519928207807 -0.071590023617925533 0.087313962072226387 -0.096549085504651036 -0.046036775584562706 -0.084322665726624779 -0.050906976407559423 0.077950462850159066 -0.086233275990388103 -0.064495678176256371 0.0829709421889398 0.09550786338862223 -0.074183694686501142 0.067157421481703186 0.080779347919403457 -0.060784259064164216 0.088486693247770046 -0.00078665719884896557 -0.044893962719621823 0.077322354386506767 0.085329786112096809 -0.090636481007421082 -0.049395104043928877 0.016562841216652018
leaf_weight=0.23435631627216968 1.0015172380954027 2.0685997288674143 0.13745604082942009 0.06020699068903923 0.28434509783983231 12.724070969503368 0.49618487060070027 0.84368753619491943 0.39415197819471437 0.081778787076473236 0.58814242109656412 0.05818600207567215 1.0395465539768327 0.35018119215965082 0.25106630101799965 0.080162517726420246 0.38933267444372177 0.43499651551246643 0.13204295188188553 0.38033695798367151 0.054369833320379257 0.35980359278619267 0.254881216213107 6.4374200748279691 0.20258493814617373 0.044665923342108727 0.32871807366609596 0.17822554707527161 0.84409459307789791 0.55545515008271373
leaf_count=12 30 21 2 1 4 261 5 13 3 1 9 1 22 2 4 1 3 2 2 7 4 8 2 128 5 2 3 2 16 18
internal_value=6.58615e-10 0.0287106 -0.00228095 0.00112323 -0.00700605 -0.00211042 -0.0325997 -0.0516268 0.00242965 0.0557209 0.00052441 0.0344626 -0.00282783 -0.00604804 0.0295198 0.0076092 0.0577922 0.051963 0.060475 0.0307331 -0.000898039 0.0199147 0.00506819 -0.0057752 -0.0140178 0.00829301 0.0356757 -0.0569787 -0.0415177 -0.0134123
internal_weight=31.2906 2.30296 28.9876 16.8489 12.1387 15.8413 2.05316 1.03933 13.7881 0.475931 13.3122 0.195642 11.0994 10.0945 1.00491 0.720561 0.469495 1.00758 0.947376 0.51238 9.05494 1.71906 1.36888 7.33588 1.114 0.754194 0.531303 0.222891 0.898464 1.55697
internal_count=594 33 561 339 222 327 53 16 274 4 270 3 206 194 12 8 4 12 11 9 172 24 22 148 20 12 8 4 20 48
is_linear=0
shrinkage=0.05


Tree=19
num_leaves=31
num_cat=0
split_feature=0 1 0 0 0 1 1 0 0 0 0 2 2 2 1 0 2 2 0 0 0 2 0 0 0 0 0 0 0 0
split_gain=0.863168 0.375761 0.433946 0.371104 0.425836 0.409456 0.337092 0.330707 0.262644 0.203878 0.27684 0.381923 0.198637 0.173453 0.438203 0.362618 0.466247 0.249974 0.232441 0.251577 0.39789 0.287657 0.396724 0.161704 0.610177 0.150994 0.163817 0.148203 0.547035 0.543268
threshold=4.690523882975175e-17 -0.10035529732704161 -8.9362656629537426e-17 -3.6550488251401193e-16 -3.3298299990939462e-17 -0.060236785560846322 -0.060236785560846322 -4.6828732359424568e-16 1.5460887748976354e-16 -4.3596230403765455e-16 -3.8676238210157654e-16 0.021465975325554613 -0.0099171857582405192 -0.022031949833035466 -0.060236785560846322 -2.9984377205159807e-16 -0.030699941329658028 -0.030699941329658028 -7.2772608551062058e-17 -7.8718762759862308e-17 -1.0330250957640842e-16 -0.027446808293461796 -1.8797507670710602e-16 -2.6887901766267177e-16 -2.9984377205159807e-16 -2.5828370329778677e-16 -2.9062441792118015e-16 0.12346530548158834 0.10679214470367253 0.10306733598612937
decision_type=2 2 2 2 2 2 2 2 2 2 2 2 2 2 2 2 2 2 2 2 2 2 2 2 2 2 2 2 2 2
left_child=1 2 -1 6 13 -6 7 -3 -2 -8 11 -11 -4 15 23 16 -5 -17 19 20 21 -19 -23 24 -15 26 -16 28 29 -10
right_child=8 3 12 4 5 -7 9 -9 27 10 -12 -13 -14 14 25 17 -18 18 -20 -21 -22 22 -24 -25 -26 -27 -28 -29 -30 -31
leaf_value=-0.041652159430932048 -0.033896490104738837 -0.082258157126322007 0.067831986280656953 0.036555008633480039 -0.043439587568088411 0.060632466523297915 -0.070515102685585307 0.059339376335441944 -0.0049855341631097477 0.081412363868134108 -0.067888141995359155 -0.080495450909772004 -0.019330627718395939 -0.083082109693390582 0.036820914922561537 -0.053121829288666315 -0.073566244093651409 0.036727801104312528 0.055271021382179125 -0.08514860998986061 0.069148836394851365 0.036887909945610746 -0.077524603200236242 -0.057687754786370261 0.065523999152766133 0.06073795570316181 -0.069299064101079097 0.0048780552670015485 -0.056030145167654845 0.06384115893519518
leaf_weight=0.53837941400706768 0.72863368038088339 0.042755801230668911 0.17449205182492733 0.73630261793732643 0.10995995625853539 0.67265752702951731 0.080878444015979767 1.1597544476389883 18.273347491398464 0.17150932550430298 0.069021075963973888 0.046244192868471146 0.10451527684926976 0.11649803444743156 0.1310747042298317 0.39371310360729683 0.11055177263915528 0.14060370810329914 0.13433394767344031 0.1123909205198288 0.14458070695400238 0.10357084684073925 0.28223996236920357 0.1603519506752491 0.16968923807144165 0.49252929538488366 0.050331281498074532 4.3815017435699692 0.51737970020621915 0.29127831757068534
leaf_count=29 27 1 8 6 5 6 2 8 336 2 2 1 3 2 2 17 3 2 2 2 1 2 4 7 1 7 2 88 14 2
internal_value=-5.6414e-10 0.016254 -0.0154258 0.0208521 0.0128714 0.0460101 0.0414949 0.0543048 -0.00433284 -0.000403456 0.01937 0.0470281 0.0351811 0.00496146 0.0209225 -0.00332468 0.0221793 -0.0197938 -0.00549572 -0.0159159 -0.00431952 -0.0244977 -0.0468106 -0.0174912 0.00503102 0.0463748 0.00737782 -0.00341477 -0.00531892 -0.00390565
internal_weight=30.6411 6.44893 0.817387 5.63154 4.06138 0.782617 1.57016 1.20251 24.1921 0.367653 0.286775 0.217754 0.279007 3.27876 1.12047 2.15829 0.846854 1.31143 0.91772 0.783386 0.670995 0.526415 0.385811 0.446539 0.286187 0.673935 0.181406 23.4635 19.082 18.5646
internal_count=594 127 40 87 71 11 16 9 467 7 5 3 11 60 21 39 9 30 13 11 9 8 6 10 3 11 4 440 352 338
is_linear=0
shrinkage=0.05


Tree=20
num_leaves=31
num_cat=0
split_feature=0 1 0 0 1 0 0 1 0 0 0 2 0 2 0 2 0 0 2 3 0 0 3 0 0 0 2 0 0 0
split_gain=0.850749 0.345478 0.427272 0.303352 0.425819 0.826189 0.476934 0.30773 0.294245 0.257087 0.20782 0.198409 0.312216 0.196385 0.656194 0.187886 0.185111 0.250449 0.300233 0.168755 0.166074 0.765961 0.501921 0.769263 0.613891 0.441145 0.798081 0.610201 0.380014 0.293013
threshold=4.690523882975175e-17 -0.10035529732704161 -8.9362656629537426e-17 -3.6550488251401193e-16 -0.060236785560846322 -2.828359071806608e-16 -2.5828370329778677e-16 -0.060236785560846322 -4.6828732359424568e-16 -3.1790592413986528e-16 1.5460887748976354e-16 -0.022031949833035466 -3.3298299990939462e-17 -0.024483307264745232 -2.9984377205159807e-16 -0.0099171857582405192 -4.3596230403765455e-16 -3.8676238210157654e-16 0.021465975325554613 -0.017962302779778835 0.094840631236489184 0.091618766806514748 -0.017962302779778835 0.0038752526897688788 0.0072390107133810866 0.10679214470367253 -0.086169000715017305 0.12346530548158834 0.10306733598612937 0.12738701101343716
decision_type=2 2 2 2 2 2 2 2 2 2 2 2 2 2 2 2 2 2 2 2 2 2 2 2 2 2 2 2 2 2
left_child=1 2 -1 7 5 13 9 8 -3 -6 19 12 -8 -5 -15 -4 -9 18 -18 -2 21 22 24 -24 -12 26 -22 -27 -28 -29
right_child=10 3 15 4 6 -7 11 16 -10 -11 20 -13 -14 14 -16 -17 17 -19 -20 -21 25 -23 23 -25 -26 27 28 29 -30 -31
leaf_value=-0.040915694696206366 -0.057817199783514753 -0.079298592028093126 0.06651848368723999 0.039709554576366317 0.026083962038529342 -0.048204198107398219 0.0062314692003369214 -0.068894091607924854 0.058762407527742179 -0.067648465488076376 -0.050930057875070968 0.05967009436954053 0.060332800207596543 -0.080483156238447262 0.064276490893181007 -0.018027505413064981 0.076880677202680159 -0.066434718554632774 -0.077797583425020508 -0.0088252586486123694 -0.057427020197978018 -0.084080064020572345 0.062111692412593948 0.0016327137637787627 -0.0062027149472088962 -0.055496979082145771 0.023193559332148082 0.042840220216580599 0.093300467221566971 -0.0005617900961011515
leaf_weight=0.51547476463019848 0.31897223927080631 0.040042113512754329 0.17935528606176376 0.6578400693833828 0.12350723519921303 0.66317974217236031 0.74207324534654617 0.076750200241804123 1.0663096085190771 0.17943499982357058 0.81607749499381732 0.68177091702819148 0.41626298427581787 0.15720576047897339 0.15593843162059773 0.10370968468487252 0.16159026324748993 0.064475055783986934 0.038929887115955353 0.39151819236576813 0.18829114362597466 0.30693045258521934 0.63045199029147392 3.166930241510272 12.79802071675658 0.4831149112433194 0.39666560664772887 0.43139199912548054 0.37700876593589783 3.9454282224178314
leaf_count=29 17 1 8 5 2 31 9 2 8 7 39 9 4 3 1 3 2 2 1 10 3 4 12 97 176 14 6 4 1 84
internal_value=2.86896e-10 0.0168173 -0.013813 0.0214983 0.014039 -0.00518599 0.0286988 0.0409552 0.0537656 -0.0294345 -0.00417739 0.0382694 0.0256735 0.0241953 -0.00839626 0.0355424 -0.000516466 0.0192877 0.0468507 -0.03082 -0.00337327 -0.00578059 -0.00440033 0.0116736 -0.00888383 0.00395321 0.0348892 -0.00217019 0.0573564 0.00371604
internal_weight=30.2747 6.02385 0.79854 5.22531 3.77721 1.63416 2.14305 1.4481 1.10635 0.302942 24.2508 1.84011 1.15834 0.970984 0.313144 0.283065 0.341745 0.264995 0.20052 0.71049 23.5403 17.7184 17.4115 3.79738 13.6141 5.8219 0.961966 4.85994 0.773674 4.37682
internal_count=594 127 40 87 71 40 31 16 9 9 467 22 13 9 4 11 7 5 3 27 440 328 324 109 215 112 10 102 7 88
is_linear=0
shrinkage=0.05


Tree=21
num_leaves=31
num_cat=0
split_feature=0 1 0 0 1 0 0 1 0 0 2 0 2 0 2 0 3 0 0 2 0 0 0 0 2 0 0 0 0 2
split_gain=0.73902 0.301902 0.4016 0.322651 0.393553 0.768083 0.372754 0.285828 0.254792 0.24837 0.201708 0.303902 0.190505 0.187862 0.168059 0.581699 0.156624 0.153448 0.215613 0.232975 0.137946 0.159298 0.265457 0.211807 0.285372 0.437216 0.116238 0.34838 0.142131 0.523387
threshold=4.690523882975175e-17 -0.10035529732704161 -8.9362656629537426e-17 -3.6550488251401193e-16 -0.060236785560846322 -2.828359071806608e-16 -2.5828370329778677e-16 -0.060236785560846322 -3.1790592413986528e-16 -4.6828732359424568e-16 -0.022031949833035466 -3.3298299990939462e-17 -0.0099171857582405192 1.5460887748976354e-16 -0.024483307264745232 -2.9984377205159807e-16 -0.017962302779778835 -4.3596230403765455e-16 -3.8676238210157654e-16 0.021465975325554613 -4.6117760536212991e-17 -7.2772608551062058e-17 -7.8718762759862308e-17 -1.0330250957640842e-16 -0.027446808293461796 -1.8797507670710602e-16 -3.1359044935972198e-16 -3.3832641107318188e-16 -3.5267397161138575e-16 -0.048515290021896355
decision_type=2 2 2 2 2 2 2 2 2 2 2 2 2 2 2 2 2 2 2 2 2 2 2 2 2 2 2 2 2 2
left_child=1 2 -1 7 5 14 8 9 -6 -3 11 20 -4 16 26 -16 -2 -9 19 -19 21 22 23 24 -8 -26 27 28 29 -5
right_child=13 3 12 4 6 -7 10 17 -10 -11 -12 -13 -14 -15 15 -17 -18 18 -20 -21 -22 -23 -24 -25 25 -27 -28 -29 -30 -31
leaf_value=-0.040068059221554084 -0.057014837449124368 -0.077202134214056001 0.065432096592420025 -0.10681676069008193 0.026498330342436482 -0.048218409550801547 0.065701231170060048 -0.067427955450280033 -0.066546575254293305 0.058230381382223743 0.059046371050575489 0.059706678512121227 -0.018706121876487961 -0.0031294907283296483 -0.077809612961611332 0.063194547266700637 -0.008676222047963705 0.074508083667254366 -0.065322037096038829 -0.075335898578387434 -0.080268240157115825 0.068128659284148935 -0.084990551961938568 0.066891147435444623 0.068506464748541288 -0.070708526725535223 0.066818398842850388 -0.08623061657496732 0.068951770638508394 0.066318861194922432
leaf_weight=0.49628894845955074 0.29728954192250967 0.035020500421523937 0.18095856718719006 0.06508125364780426 0.13446259126067162 0.6390570793300866 0.10268519818782806 0.068621367216110229 0.16249005682766471 1.0151582509279249 0.62146171182394305 0.38401462137699127 0.10708916559815396 23.153868115507066 0.1503850631415844 0.14240555465221394 0.38406340312212961 0.13781791180372238 0.058051440864801296 0.031954564154148102 0.04464346170425415 0.1020226776599884 0.078783579170703888 0.13684022426605225 0.078312508761882782 0.20154106616973877 0.21175719797611237 0.063966423273086548 0.20192839205265045 0.13255955278873444
leaf_count=29 17 1 8 1 2 31 1 2 7 8 9 4 3 440 3 1 10 2 2 1 1 1 1 1 1 3 1 1 1 1
internal_value=-5.44065e-10 0.0160305 -0.0128109 0.0205538 0.0128444 -0.00567486 0.0273823 0.0414753 -0.0244151 0.0537141 0.0361702 0.0235761 0.0341515 -0.00389096 0.0224092 -0.00922895 -0.0297674 -0.00188168 0.0178611 0.0463045 0.00494817 0.0103815 0.000532171 0.0135049 -0.00559215 -0.0317515 0.0361268 0.0221059 0.0394494 0.00930693
internal_weight=29.6206 5.78536 0.784337 5.00102 3.6544 1.60714 2.04726 1.34662 0.296953 1.05018 1.75031 1.12884 0.288048 23.8352 0.968083 0.292791 0.681353 0.296445 0.227824 0.169772 0.744829 0.700185 0.598163 0.519379 0.382539 0.279854 0.675293 0.463536 0.399569 0.197641
internal_count=594 127 40 87 71 40 31 16 9 9 22 13 11 467 9 4 27 7 5 3 9 8 7 6 5 4 5 4 3 2
is_linear=0
shrinkage=0.05


Tree=22
num_leaves=31
num_cat=0
split_feature=0 1 0 0 1 0 0 0 1 0 2 0 2 0 0 2 2 0 2 3 2 0 0 2 0 0 0 2 0 0
split_gain=0.704593 0.283614 0.384233 0.282506 0.397493 0.682758 0.289186 0.285893 0.27223 0.205449 0.187184 0.176612 0.166625 0.25404 0.13928 0.238406 0.247725 0.136615 0.504435 0.135602 0.134516 0.127722 0.184443 0.199311 0.126699 0.22809 0.169077 0.232878 0.360608 0.10745
threshold=4.690523882975175e-17 -0.10035529732704161 -8.9362656629537426e-17 -3.6550488251401193e-16 -0.060236785560846322 -2.828359071806608e-16 -2.5828370329778677e-16 -3.1790592413986528e-16 -0.060236785560846322 -4.6828732359424568e-16 -0.0099171857582405192 1.5460887748976354e-16 -0.022031949833035466 -3.3298299990939462e-17 -3.1359044935972198e-16 -0.024483307264745232 -0.086169000715017305 -3.5267397161138575e-16 -0.048515290021896355 -0.017962302779778835 -0.030699941329658028 -4.3596230403765455e-16 -3.8676238210157654e-16 0.021465975325554613 -7.2772608551062058e-17 -7.8718762759862308e-17 -1.0330250957640842e-16 -0.027446808293461796 -1.8797507670710602e-16 2.8737552135632683e-16
decision_type=2 2 2 2 2 2 2 2 2 2 2 2 2 2 2 2 2 2 2 2 2 2 2 2 2 2 2 2 2 2
left_child=1 2 -1 8 5 14 7 -6 9 -3 -4 19 13 20 15 16 -5 18 -18 -2 -8 -10 23 -23 25 26 27 -22 -29 -13
right_child=11 3 10 4 6 -7 12 -9 21 -11 -12 29 -14 -15 -16 -17 17 -19 -20 -21 24 22 -24 -25 -26 -27 -28 28 -30 -31
leaf_value=-0.039557820863636975 -0.056012061408483776 -0.075195776850220664 0.064276787356072826 -0.083917658391982175 0.031565251486958712 -0.047076493485189073 -0.079399559245449419 -0.065568268980887162 -0.066079521655522083 0.057665365631029114 -0.021181284922882643 0.013791918941493193 0.058492781736822742 0.058971374147990689 0.045105204398818488 -0.073957245693483151 -0.10757194190211833 0.066195280090732 0.065134907638653108 -0.0098578590586277156 0.064620370885537071 0.072040136309152139 -0.064256749325888596 -0.073664629147248903 0.066238280108237971 -0.081899388304612589 0.065146481059176656 0.066591385679870441 -0.065985827053521282 -0.00365836171990515
leaf_weight=0.47367243329063058 0.2754527386277914 0.030019676312804222 0.18227322772145271 0.050238046795129776 0.15376203507184982 0.60031243786215793 0.042343202978372352 0.14931869320571411 0.062332337722182274 0.94673707708716393 0.098814515396952518 0.91853655595332639 0.57628057152033152 0.3582170270383358 0.37734656780958142 0.080515149980783463 0.065040171146392822 0.17563629150390625 0.12081324309110641 0.37688633427024143 0.094005927443504111 0.12174076214432716 0.053299808874726073 0.029076185077428818 0.093931742012500985 0.068545371294021606 0.12652416527271271 0.072111397981643455 0.17764126881957076 22.266368766315281
leaf_count=29 17 1 8 1 2 31 1 7 2 8 3 30 9 4 3 2 1 1 1 10 1 2 2 1 1 1 1 1 3 410
internal_value=1.95186e-10 0.0163429 -0.0120761 0.0209799 0.0134889 -0.00606292 0.0285146 -0.0162895 0.0413617 0.053582 0.0342346 -0.00368893 0.036951 0.0249372 0.0222504 0.00473022 0.0201179 0.0345762 0.00469543 -0.0293467 0.00687823 -0.00343566 0.0156943 0.0439495 0.0126518 0.00331028 0.0157299 -0.00245844 -0.0277066 -0.00296702
internal_weight=29.2178 5.38055 0.75476 4.62579 3.38258 1.4699 1.91268 0.303081 1.24321 0.976757 0.281088 23.8372 1.6096 1.03332 0.869589 0.492243 0.411728 0.36149 0.185853 0.652339 0.675103 0.266449 0.204117 0.150817 0.63276 0.538828 0.470283 0.343759 0.249753 23.1849
internal_count=594 127 40 87 71 40 31 9 16 9 11 467 22 13 9 6 4 3 2 27 9 7 5 3 8 7 6 5 4 440
is_linear=0
shrinkage=0.05


Tree=23
num_leaves=31
num_cat=0
split_feature=0 1 0 2 0 1 0 0 1 2 0 0 0 1 0 0 0 0 0 2 0 0 2 1 0 0 0 2 0 2
split_gain=0.535794 0.546143 0.342608 0.590684 0.381919 0.365519 0.355551 0.372249 0.282506 0.225202 0.2241 0.315474 0.184093 0.828567 0.946477 0.487615 0.484317 0.311513 0.337775 0.387734 0.173644 0.338208 0.173143 0.159419 0.173372 0.162776 0.208671 0.146974 0.221394 0.130037
threshold=-3.6550488251401193e-16 -0.10035529732704161 -3.5267397161138575e-16 -0.048515290021896355 4.690523882975175e-17 -0.060236785560846322 -2.9062441792118015e-16 -8.9362656629537426e-17 -0.10035529732704161 0.013909260276705028 -2.5828370329778677e-16 -3.1790592413986528e-16 0.005476949228401075 -0.10035529732704161 0.0038752526897688788 0.0077222336925706798 1.3347525760198156e-16 0.0091535397086173562 0.0081917031312101121 1.0000000180025095e-35 1.2893884082247825e-16 1.1037530151945581e-16 -0.0099171857582405192 -0.060236785560846322 -4.6828732359424568e-16 -4.3596230403765455e-16 -3.8676238210157654e-16 -0.070362573489546762 -2.9984377205159807e-16 -0.070362573489546762
decision_type=2 2 2 2 2 2 2 2 2 2 2 2 2 2 2 2 2 2 2 2 2 2 2 2 2 2 2 2 2 2
left_child=1 -1 3 -2 5 6 27 -8 22 -5 11 -7 13 14 16 -14 20 18 19 -17 21 29 -9 24 -3 -25 -27 -4 -29 -6
right_child=2 23 4 9 12 10 7 8 -10 -11 -12 -13 15 -15 -16 17 -18 -19 -20 -21 -22 -23 -24 25 -26 26 -28 28 -30 -31
leaf_value=-0.051209548217311419 -0.10180090290844937 -0.07353694985090066 0.047847624735568396 0.064069463199621313 -0.080200918979235689 0.037266568099400058 -0.053145815817055769 0.063223348884164435 -0.028930516175274746 -0.072582855955828987 0.038389299198984872 -0.064829741267877605 0.055220321747043402 -0.05215483369915435 -0.080563635267436318 0.078421242072112859 0.061144445567211818 -0.0018289844188129343 -0.070384481653478229 -0.084108830977649637 -0.080943883235048336 0.094809436806490843 -0.016915951650792627 -0.064928429827061915 0.057161553999583295 0.051993375171563438 -0.063334189383864023 -0.050295963751477261 0.040184762607361826 0.0021701673889582252
leaf_weight=0.17795913037843991 0.21893890202045441 0.026140049099922069 0.37319040205329657 0.10999536514282837 0.076163031160831451 0.16834127902984619 0.46588209457695473 0.22142332978546619 0.29766292497515667 0.041533663868904114 1.4828402996063221 0.13743455521762382 0.36887694522738712 0.94121517799794929 0.22762888669967651 0.099311882629993131 0.58290913514792919 20.704754765145481 0.33565287571400404 0.058199170976877213 0.074166759848594666 0.076458562165498734 0.096891650930047035 0.056848406791687012 0.86508724093437195 0.19644287787377834 0.049007594585421255 0.12262752768583596 0.15068199485540401 0.12917700875550531
leaf_count=11 1 1 4 1 1 2 27 8 16 1 22 7 12 53 3 2 13 365 9 1 1 3 3 2 8 3 2 6 2 4
internal_value=-2.6045e-10 0.030502 -0.00151778 -0.0492768 -0.000867095 0.0145072 -0.00189046 -0.0194213 0.00608556 0.0266135 0.0303524 -0.00862182 -0.00315103 -0.0172548 0.010905 -0.00177267 0.0330814 -0.00276444 -0.0420381 0.0183676 -0.0128731 0.00504255 0.0388298 0.0426855 0.0533281 0.0113093 0.0289666 0.0274458 -0.000411802 -0.0283822
internal_weight=28.9334 1.37149 27.562 0.370468 27.1915 3.51698 1.72836 1.08186 0.615978 0.151529 1.78862 0.305776 23.6745 2.10772 1.1665 21.5668 0.938874 21.1979 0.493164 0.157511 0.355965 0.281799 0.318315 1.19353 0.891227 0.302299 0.24545 0.6465 0.27331 0.20534
internal_count=594 27 567 3 564 97 66 54 27 2 31 9 467 78 25 389 22 377 12 3 9 8 11 16 9 7 5 12 8 5
is_linear=0
shrinkage=0.05


Tree=24
num_leaves=31
num_cat=0
split_feature=0 0 0 1 0 1 0 0 0 1 1 1 0 2 0 0 2 0 2 0 0 0 1 2 0 2 3 0 3 0
split_gain=0.652961 0.24305 0.246421 0.503464 0.157755 0.156352 0.150068 0.138072 0.177941 0.124498 0.173066 0.112769 0.330958 0.260097 0.254866 0.137194 0.169182 0.163247 0.125648 0.292812 0.137994 0.215195 0.116117 0.219018 0.109508 0.383489 0.103621 0.103426 0.468268 0.149787
threshold=4.690523882975175e-17 -3.5179211439343762e-17 -3.6550488251401193e-16 -0.10035529732704161 1.5460887748976354e-16 -0.060236785560846322 -4.6828732359424568e-16 -4.3596230403765455e-16 -3.8676238210157654e-16 -0.060236785560846322 -0.10035529732704161 -0.060236785560846322 -2.9062441792118015e-16 -0.030699941329658028 -8.9362656629537426e-17 -2.5828370329778677e-16 -0.022031949833035466 -3.1790592413986528e-16 -0.024483307264745232 -2.9984377205159807e-16 -3.2525831353481501e-16 -3.3832641107318188e-16 -0.10035529732704161 -0.0099171857582405192 -3.5267397161138575e-16 -0.048515290021896355 -0.017962302779778835 0.86007236659065456 -0.017962302779778835 0.72642235275084799
decision_type=2 2 2 2 2 2 2 2 2 2 2 2 2 2 2 2 2 2 2 2 2 2 2 2 2 2 2 2 2 2
left_child=1 2 3 -1 26 6 -5 -7 -9 10 -3 12 18 -13 -14 17 -17 -15 20 -20 21 24 23 -16 25 -4 -2 29 -29 -6
right_child=4 9 11 5 27 7 -8 8 -10 -11 -12 13 14 15 22 16 -18 -19 19 -21 -22 -23 -24 -25 -26 -27 -28 28 -30 -31
leaf_value=-0.050653723165356983 -0.054365740318101409 0.066158348062585318 -0.098390093455841598 -0.072233823795600532 -0.0030391549769553153 -0.063785013918816788 0.056738062863542098 0.048042746822264198 -0.062367668395248488 0.057698548328570312 -0.031135179661691149 -0.072978491564311021 -0.05237520150063725 0.019139394413479827 0.06266218769021821 0.013642124215547939 0.057967403178049451 -0.063862976623591375 -0.067526442134847764 0.037621935455983635 0.067318692921188125 -0.062921469787955958 -0.027299581406023489 -0.040510782482110416 0.063894631630778437 0.063079531666525968 -0.011381902143550872 -0.065691649481034439 0.062181743093101274 0.023426355838584864
leaf_weight=0.16716402070596803 0.24035435169935226 0.078885063529014587 0.058008451014757156 0.023194279521703609 21.978908855468042 0.051478007808327675 0.81801627576351166 0.18851004168391228 0.04525160789489735 0.48917460441589611 0.10867518745362759 0.077885447070002445 0.44484609179198709 0.16344299912452698 0.14610772393643856 0.56794383004307736 0.34667914360761687 0.0929148569703101 0.12109586200676858 0.14608099125325646 0.18262274144217372 0.07270191190764308 0.18259853031486317 0.079387251287698746 0.14689347147941589 0.10044058412313461 0.33651436027139681 0.25397680513560772 0.09969727136194606 0.54795759357511897
leaf_count=11 17 3 1 1 406 2 8 3 2 6 6 3 27 2 6 8 7 5 4 2 3 3 10 2 1 1 10 12 4 18
internal_value=-5.23116e-10 0.0166005 0.0121429 0.0303186 -0.00346768 0.0423348 0.053182 0.0103449 0.0266695 0.0444191 0.00978504 0.00411727 -0.00433863 0.0154976 -0.0261969 0.0213824 0.0304432 -0.0109442 0.0181823 -0.0100358 0.0316291 0.0143885 0.00233899 0.0263393 0.0327959 0.00396524 -0.0292913 -0.00281661 -0.0296454 -0.00239539
internal_weight=28.3574 4.9 4.22326 1.29361 23.4574 1.12645 0.841211 0.28524 0.233762 0.676735 0.18756 2.92965 1.68078 1.24887 0.85294 1.17098 0.914623 0.256358 0.827844 0.267177 0.560667 0.378044 0.408094 0.225495 0.305343 0.158449 0.576869 22.8805 0.353674 22.5269
internal_count=594 127 112 27 467 16 9 7 5 15 9 85 60 25 45 22 15 7 15 6 9 6 18 8 3 2 27 440 16 424
is_linear=0
shrinkage=0.05


Tree=25
num_leaves=31
num_cat=0
split_feature=0 0 0 1 0 3 0 0 1 0 0 0 0 1 1 0 0 0 2 1 0 0 2 2 0 0 2 0 0 0
split_gain=0.633887 0.248481 0.215896 0.46128 0.193782 0.288425 0.179901 0.167644 0.254036 0.202479 0.400632 0.513568 0.222166 0.470904 0.153421 0.131211 0.117697 0.149991 0.21142 0.105975 0.277361 0.247877 0.211561 0.123496 0.137921 0.120182 0.103941 0.253168 0.135664 0.184124
threshold=4.690523882975175e-17 -3.5179211439343762e-17 -3.6550488251401193e-16 -0.10035529732704161 1.9148156630594754e-16 -0.017962302779778835 1.3347525760198156e-16 2.1955552489394352e-16 -0.10035529732704161 0.005476949228401075 0.0081917031312101121 0.0091535397086173562 0.0036891896316587846 -0.10035529732704161 -0.060236785560846322 -4.6828732359424568e-16 -4.3596230403765455e-16 -3.8676238210157654e-16 0.021465975325554613 -0.060236785560846322 -2.9062441792118015e-16 -8.9362656629537426e-17 -0.030699941329658028 -0.022031949833035466 -1.4640589502802751e-16 -2.5828370329778677e-16 -0.024483307264745232 -2.9984377205159807e-16 -3.2525831353481501e-16 -3.3832641107318188e-16
decision_type=2 2 2 2 2 2 2 2 2 2 2 2 2 2 2 2 2 2 2 2 2 2 2 2 2 2 2 2 2 2
left_child=1 2 3 -1 5 -2 -7 8 -6 12 -11 -12 13 -9 15 -5 -16 18 -18 20 26 -22 -21 24 -24 -25 28 -28 29 -4
right_child=4 -3 19 14 7 6 -8 9 -10 10 11 -13 -14 -15 16 -17 17 -19 -20 22 21 -23 23 25 -26 -27 27 -29 -30 -31
leaf_value=-0.050019748231615792 -0.05812927979259859 0.04507061195023028 0.030019552755658152 -0.071132611047999159 0.060082515589861142 -0.016803431217527465 0.060618654516574937 0.060484429167989656 -0.035182304187160889 0.043092536696080389 -0.068715449374549153 -0.0022601225898924511 -0.057899582233848827 -0.052582996273950494 -0.062929138720475772 0.056325352003795952 0.068579142695255071 -0.061633167206990851 -0.074786052072289833 -0.070183969957020587 -0.051362640938620543 0.0040997309650745578 -0.024600056815162519 0.0082839270044011825 0.023916696096930444 0.057503644880408836 -0.065890532306007735 0.035092897779504063 0.066866289390978162 -0.062153730009545993
leaf_weight=0.15752020315267135 0.3927646167576313 0.6670544939115669 0.28282495215535164 0.020742323249578365 0.24061550945043564 0.31266569159925239 0.098722212016582489 0.16578354686498642 0.098678691312673261 0.47815102618187921 0.29486405849457042 20.696537862531841 0.34719118475914001 0.20715283229947346 0.046772709116339684 0.76081778109073639 0.1498122438788414 0.041302829980850109 0.031044531613588333 0.067902680486440548 0.41705883340910044 0.38969111070036933 0.23524044267833222 0.20171688217669725 0.38823219016194344 0.32199905626475844 0.11010512965731323 0.14225024171173539 0.169475425966084 0.067018793430179358
leaf_count=11 27 15 3 1 4 9 3 6 5 15 9 365 12 12 2 8 2 2 1 3 27 18 6 4 5 7 4 2 3 3
internal_value=1.09704e-10 0.0168181 0.0121084 0.0297696 -0.00336504 -0.0274831 0.00177582 -0.00250416 0.0323762 -0.00303751 -0.00216277 -0.00319361 -0.0291165 -0.00232049 0.0417339 0.0529427 0.00915958 0.0243369 0.0439701 0.00447115 -0.00407338 -0.0245722 0.0155706 0.0206465 0.005611 0.0385459 0.0173572 -0.00896717 0.0301491 0.0123621
internal_weight=28.0017 4.66858 4.00153 1.20801 23.3331 0.804153 0.411388 22.529 0.339294 22.1897 21.4696 20.9914 0.720128 0.372936 1.05049 0.78156 0.268932 0.22216 0.180857 2.79352 1.57842 0.80675 1.21509 1.14719 0.623473 0.523716 0.771675 0.252355 0.519319 0.349844
internal_count=594 127 112 27 467 39 12 428 9 419 389 374 30 18 16 9 7 5 3 85 60 45 25 22 11 11 15 6 9 6
is_linear=0
shrinkage=0.05


Tree=26
num_leaves=31
num_cat=0
split_feature=0 0 0 1 0 3 0 0 1 0 0 0 1 0 1 0 0 2 2 0 0 0 1 2 0 0 0 0 1 1
split_gain=0.573144 0.219777 0.20379 0.425426 0.145911 0.30113 0.161077 0.147383 0.491687 0.368493 0.290068 0.418609 0.138298 0.117038 0.115595 0.27626 0.197404 0.185086 0.116657 0.128521 0.143127 0.192206 0.105779 0.171648 0.150394 0.105643 0.135928 0.100796 0.0963469 0.174059
threshold=4.690523882975175e-17 -3.5179211439343762e-17 -3.6550488251401193e-16 -0.10035529732704161 1.9148156630594754e-16 -0.017962302779778835 1.3347525760198156e-16 2.8737552135632683e-16 -0.10035529732704161 0.005476949228401075 0.0081917031312101121 0.0091535397086173562 -0.060236785560846322 -4.6828732359424568e-16 -0.060236785560846322 -2.9062441792118015e-16 -8.9362656629537426e-17 -0.030699941329658028 -0.022031949833035466 -7.2772608551062058e-17 -7.8718762759862308e-17 -1.0330250957640842e-16 -0.10035529732704161 -0.0099171857582405192 -5.8311512899843928e-17 -4.3596230403765455e-16 -3.8676238210157654e-16 -2.5828370329778677e-16 -0.060236785560846322 -0.10035529732704161
decision_type=2 2 2 2 2 2 2 2 2 2 2 2 2 2 2 2 2 2 2 2 2 2 2 2 2 2 2 2 2 2
left_child=1 2 3 -1 5 -2 -7 8 -6 -9 -11 -12 13 -5 15 -4 -17 -16 19 20 21 -19 23 -18 -25 -14 -27 -20 29 -3
right_child=4 28 14 12 7 6 -8 9 -10 10 11 -13 25 -15 17 16 22 18 27 -21 -22 -23 -24 24 -26 26 -28 -29 -30 -31
leaf_value=-0.049369246448638757 -0.057389511166986706 0.062611001102560918 0.017109851197041181 -0.070405320414085731 0.059421893374513562 -0.012870599502745836 0.059939103565382804 -0.046951045003390091 -0.043485205809452809 0.037162015106079901 -0.065677072558805297 -0.0021477228828557858 -0.062069540927132072 0.055960854276093132 -0.068566193454101004 -0.050471760903755908 0.061805599100071176 -0.011990934459495466 0.011582579733103547 0.063886588814987488 -0.078010677050398061 0.062977964014161558 -0.027772111664973828 0.085816013084167295 -0.075104480577844968 0.044154258219723061 -0.060865941147592417 0.057079412780241458 0.056930396620071926 -0.028546754891955191
leaf_weight=0.14742720127105713 0.36669620592147112 0.10163984447717667 0.73770509473979484 0.018809011206030846 0.33754525892436504 0.31074963230639951 0.10053764656186104 0.46757076401263731 0.17691098712384956 0.4607424251735236 0.26259425003081815 20.660390087403357 0.042841017246246338 0.70956612750887871 0.061106810346245655 0.39351531118154537 0.12274236232042313 0.35588270053267468 0.20512571185827255 0.082988522946834564 0.056822184473276138 0.11252899467945099 0.17878209613263607 0.019536163657903671 0.056540451943874359 0.16368698142468929 0.03795520029962085 0.2994520030915736 0.4335272684693362 0.10801874380558729
leaf_count=11 27 3 15 1 8 9 3 21 10 15 9 365 2 8 3 27 6 8 4 1 1 1 10 1 1 3 2 7 6 6
internal_value=1.04315e-09 0.0164418 0.0118701 0.0297812 -0.00315867 -0.0244451 0.00492746 -0.00241823 0.0240342 -0.00304101 -0.00208089 -0.00294505 0.0417757 0.0526977 0.00439063 -0.00476418 -0.0256905 0.0161573 0.0208097 0.00606455 -0.0030715 0.00601924 0.000135284 0.0252302 -0.0337808 0.00923653 0.0243863 0.0385836 0.0434728 0.0156454
internal_weight=27.5899 4.4462 3.80301 1.12029 23.1437 0.777983 0.411287 22.3658 0.514456 21.8513 21.3837 20.923 0.972858 0.728375 2.68273 1.50882 0.771116 1.17391 1.1128 0.608222 0.525234 0.468412 0.377601 0.198819 0.0760766 0.244483 0.201642 0.504578 0.643186 0.209659
internal_count=594 127 112 27 467 39 12 428 18 410 389 374 16 9 85 60 45 25 22 11 10 9 18 8 2 7 5 11 15 9
is_linear=0
shrinkage=0.05


Tree=27
num_leaves=31
num_cat=0
split_feature=0 0 0 1 2 1 0 0 2 0 0 3 0 0 2 0 2 2 0 0 2 0 0 0 0 0 0 0 0 0
split_gain=0.538637 0.198356 0.174037 0.382732 0.159529 0.115401 0.252866 0.175386 0.162446 0.10674 0.660001 0.567872 0.443388 0.403307 0.377109 0.312681 0.265633 0.272506 0.500911 0.234664 0.234642 0.407066 0.97159 0.830488 0.669513 0.413686 0.371923 0.557025 0.570016 0.457798
threshold=4.690523882975175e-17 -3.5179211439343762e-17 -3.6550488251401193e-16 -0.10035529732704161 0.021465975325554613 -0.060236785560846322 -2.9062441792118015e-16 -8.9362656629537426e-17 -0.030699941329658028 0.025255949682793957 0.027399529796507862 -0.017962302779778835 0.0072390107133810866 0.027614577406220454 -0.055568564683198922 0.024578576857842049 -0.10817961022257803 -0.027446808293461796 0.025480797934013134 0.02190082554421361 -1.0000000180025095e-35 0.04970701433142969 0.041165003483291933 0.051063922813859276 0.040185732317008838 0.051724186724080613 0.037607055416086915 0.034199543952801496 0.029385043019508193 0.028552637239478627
decision_type=2 2 2 2 2 2 2 2 2 2 2 2 2 2 2 2 2 2 2 2 2 2 2 2 2 2 2 2 2 2
left_child=1 2 3 -1 -5 6 -4 -8 -7 11 16 12 -2 -12 -14 -16 -11 -18 -19 -13 21 22 24 -23 26 -25 27 28 29 -15
right_child=9 -3 5 4 -6 8 7 -9 -10 10 13 19 14 20 15 -17 17 18 -20 -21 -22 23 -24 25 -26 -27 -28 -29 -30 -31
leaf_value=-0.048566211138064155 -0.050064562735272537 0.042928422680998557 0.016470262527193157 0.044679394410178583 -0.073898957572204979 -0.067144656520499321 -0.049419461988903235 -0.00022167931339197526 0.0211521277270223 -0.075042292538214428 -0.081350230004256757 0.025785596544262671 -0.063152868851036562 -0.060385910982349411 -0.0032270227680769588 -0.078114497818806347 0.089349529719442544 -0.064709165539043254 0.045890946019414743 -0.00082901972122812612 0.010329766997849155 0.062070247447238637 -0.059232054969929775 -0.072603619100005151 0.079471356276221747 -0.00092768040935942901 -0.057423036633103899 0.023855099951875392 -0.049847898391581665 0.024755789989926873
leaf_weight=0.13767633959650993 0.84302358608692873 0.60277857724577444 0.728717526420951 0.88287529908120654 0.029305502772331238 0.054714901372790226 0.36857613408938061 0.35624150652438402 1.0860757976770399 0.050084486603736766 0.16446244902908702 1.5154201490804577 0.3123562298715109 0.20196754112840165 3.716795042157174 0.14481829479336727 0.24073911458253849 0.1216218881309058 0.64687111787497997 0.34834533929824818 2.8323444444686112 0.52639458701014508 1.0655392929911611 0.20749736204743374 0.2212863154709338 6.7502985913306475 0.37251327745616425 1.0924153849482534 0.89183510839939117 0.72327199950814247
leaf_count=11 56 15 15 15 1 3 27 18 22 1 2 55 10 3 57 3 3 2 6 8 39 5 23 4 3 140 9 16 17 5
internal_value=-2.25677e-10 0.0163595 0.0119647 0.0291414 0.0408698 0.00501377 -0.00432851 -0.0252392 0.0169172 -0.00302211 -0.000795489 -0.00823504 -0.0169899 -0.00348054 -0.0103098 -0.00603545 0.0373514 0.0429291 0.0283873 0.0153319 -0.00262019 -0.00566331 -0.0174238 0.00151603 -0.00470762 -0.00306522 -0.0103833 -0.00436064 -0.0213238 0.00617048
internal_weight=27.2369 4.24696 3.64418 1.04986 0.912181 2.59433 1.45354 0.724818 1.14079 22.9899 16.1091 6.88076 5.01699 15.0498 4.17397 3.86161 1.05932 1.00923 0.768493 1.86377 14.8854 12.053 4.56883 7.48419 3.50329 6.9578 3.282 2.90949 1.81707 0.92524
internal_count=594 127 112 27 16 85 60 45 25 467 278 189 126 266 70 60 12 11 8 63 264 225 76 149 53 144 50 41 25 8
is_linear=0
shrinkage=0.05


Tree=28
num_leaves=31
num_cat=0
split_feature=0 0 0 1 1 0 0 1 0 1 0 0 1 0 0 0 2 0 0 0 0 1 2 1 1 0 1 0 0 0
split_gain=0.498958 0.176412 0.17175 0.297916 0.229117 0.158165 0.136705 0.24043 0.164531 0.127244 0.142982 0.126039 0.424635 0.32781 0.233562 0.36217 0.124047 0.123987 0.118251 0.179036 0.112913 0.112057 0.148042 0.10816 0.162527 0.107672 0.395934 0.111772 0.212951 0.275089
threshold=4.690523882975175e-17 -3.5179211439343762e-17 -2.9062441792118015e-16 -0.060236785560846322 -0.10035529732704161 -8.9362656629537426e-17 1.9148156630594754e-16 -0.10035529732704161 1.3347525760198156e-16 -0.060236785560846322 -3.6550488251401193e-16 2.8737552135632683e-16 -0.10035529732704161 0.005476949228401075 0.0081917031312101121 0.0091535397086173562 -0.022031949833035466 -3.1790592413986528e-16 1.2893884082247825e-16 1.1037530151945581e-16 -4.6828732359424568e-16 -0.10035529732704161 -0.0099171857582405192 -0.060236785560846322 -0.10035529732704161 0.86007236659065456 -0.10035529732704161 0.72642235275084799 0.70791395312039085 0.69065079173932009
decision_type=2 2 2 2 2 2 2 2 2 2 2 2 2 2 2 2 2 2 2 2 2 2 2 2 2 2 2 2 2 2
left_child=1 2 4 5 -1 -4 7 8 18 10 20 12 -8 -13 -15 -16 -5 -11 19 -2 -6 22 -7 24 -3 27 -27 28 29 -17
right_child=6 23 3 16 9 21 11 -9 -10 17 -12 13 -14 14 15 25 -18 -19 -20 -21 -22 -23 -24 -25 -26 26 -28 -29 -30 -31
leaf_value=-0.027622246845444266 -0.022058306019100818 0.060904530903990228 -0.048611485954159622 0.0049435454393546019 -0.070021791915170495 0.060965280866629501 0.058523989080955144 -0.055894415172574402 0.059098133189611102 0.014930975249818677 0.018752464051153647 -0.045679586662103103 -0.041527335264277612 0.033757717788565317 -0.063415059389220388 -0.0021682689981587064 0.0443444029359608 -0.061006334371833774 -0.07728266859247114 0.087867994214788164 0.055340448674658572 -0.030469832151081962 -0.034328067562226637 0.056165891714443139 -0.031142473786354069 0.061319791266340053 -0.064490644494790278 0.020590840054293229 -0.059805419055329025 0.07107907611891244
